{"learner":{"attributes":{"scikit_learn":"{\"_estimator_type\": \"regressor\"}"},"feature_names":["mu0","mu1","mu2","C","CV","Ln","CV_SP","Ln_SP"],"feature_types":["float","float","float","float","float","float","float","float"],"gradient_booster":{"model":{"cats":{"enc":[],"feature_segments":[],"sorted_idx":[]},"gbtree_model_param":{"num_parallel_tree":"1","num_trees":"220"},"iteration_indptr":[0,1,2,3,4,5,6,7,8,9,10,11,12,13,14,15,16,17,18,19,20,21,22,23,24,25,26,27,28,29,30,31,32,33,34,35,36,37,38,39,40,41,42,43,44,45,46,47,48,49,50,51,52,53,54,55,56,57,58,59,60,61,62,63,64,65,66,67,68,69,70,71,72,73,74,75,76,77,78,79,80,81,82,83,84,85,86,87,88,89,90,91,92,93,94,95,96,97,98,99,100,101,102,103,104,105,106,107,108,109,110,111,112,113,114,115,116,117,118,119,120,121,122,123,124,125,126,127,128,129,130,131,132,133,134,135,136,137,138,139,140,141,142,143,144,145,146,147,148,149,150,151,152,153,154,155,156,157,158,159,160,161,162,163,164,165,166,167,168,169,170,171,172,173,174,175,176,177,178,179,180,181,182,183,184,185,186,187,188,189,190,191,192,193,194,195,196,197,198,199,200,201,202,203,204,205,206,207,208,209,210,211,212,213,214,215,216,217,218,219,220],"tree_info":[0,0,0,0,0,0,0,0,0,0,0,0,0,0,0,0,0,0,0,0,0,0,0,0,0,0,0,0,0,0,0,0,0,0,0,0,0,0,0,0,0,0,0,0,0,0,0,0,0,0,0,0,0,0,0,0,0,0,0,0,0,0,0,0,0,0,0,0,0,0,0,0,0,0,0,0,0,0,0,0,0,0,0,0,0,0,0,0,0,0,0,0,0,0,0,0,0,0,0,0,0,0,0,0,0,0,0,0,0,0,0,0,0,0,0,0,0,0,0,0,0,0,0,0,0,0,0,0,0,0,0,0,0,0,0,0,0,0,0,0,0,0,0,0,0,0,0,0,0,0,0,0,0,0,0,0,0,0,0,0,0,0,0,0,0,0,0,0,0,0,0,0,0,0,0,0,0,0,0,0,0,0,0,0,0,0,0,0,0,0,0,0,0,0,0,0,0,0,0,0,0,0,0,0,0,0,0,0,0,0,0,0,0,0,0,0,0,0,0,0],"trees":[{"base_weights":[-2.6538144E-4,2.6752633E-1,-4.3169644E-1,3.4343472E-1,7.095433E-2,-2.3113854E-1,-5.116448E-1,3.830736E-1,2.7793926E-1,-2.5879912E-2,1.3192622E-1,-2.7803215E-1,-1.4550173E-1,-5.4226357E-1,-4.1558814E-1,3.991879E-1,3.5688078E-1,3.0395478E-1,2.3813389E-1,9.288761E-3,-6.519676E-2,1.590332E-1,7.75631E-2,-2.3231605E-1,-3.1814104E-1,-1.5124413E-1,-8.831164E-2,-5.610092E-1,-5.059904E-1,-5.970019E-2,-5.175141E-2,4.0895188E-1,3.884852E-1,3.6472946E-1,4.6223007E-2,3.1556788E-1,2.8202322E-1,2.534021E-1,2.973509E-2,9.819172E-3,-8.031351E-3,-6.708552E-2,-8.349168E-3,1.34718E-1,1.8305534E-1,1.6830591E-2,7.600424E-2,-3.0765625E-2,-3.154873E-2,-4.211655E-2,-5.132375E-2,-1.489703E-1,-3.0618895E-2,-7.756709E-2,-1.9225297E-2,-5.66374E-1,-7.321216E-2,-7.030542E-2,-6.586704E-2,5.5758916E-2,5.448182E-2,5.293956E-2,5.140188E-2,4.9882665E-2,4.8194587E-2,4.3824058E-2,4.119192E-2,3.4923635E-2,3.8009297E-2,3.0321943E-2,3.420115E-2,8.6639E-3,9.5423395E-3,-8.951071E-3,-9.317332E-3,2.3477003E-2,1.3303354E-1,2.8974961E-2,2.4349315E-2,1.0567977E-2,7.411245E-2,-3.0363262E-2,-1.483975E-1,-1.0029118E-2,-1.9057347E-2,-7.5174086E-2,-7.674586E-2,1.2570216E-2,7.0883622E-3,1.8160824E-2,1.7717965E-2,1.0097157E-2,9.519224E-3,-1.4745393E-1,-1.6111785E-1,8.004308E-3,1.2476859E-2,8.188844E-3,2.100173E-3,-1.9369494E-2,-2.0128556E-2,-2.488427E-2,-2.122863E-2,1.7600118E-3,1.4448192E-3,1.1617981E-3,9.2754606E-4,-6.626692E-3,3.196495E-4],"categories":[],"categories_nodes":[],"categories_segments":[],"categories_sizes":[],"default_left":[0,0,0,0,0,0,0,0,0,0,0,0,0,0,0,0,0,0,0,0,0,0,0,0,0,0,0,0,0,0,0,0,0,0,0,0,0,0,0,0,0,0,0,0,0,0,0,0,0,0,0,0,0,0,0,0,0,0,0,0,0,0,0,0,0,0,0,0,0,0,0,0,0,0,0,0,0,0,0,0,0,0,0,0,0,0,0,0,0,0,0,0,0,0,0,0,0,0,0,0,0,0,0,0,0,0,0,0,0],"id":0,"left_children":[1,3,5,7,9,11,13,15,17,19,21,23,25,27,29,31,33,35,37,39,41,43,45,47,49,51,53,55,57,-1,-1,59,61,63,-1,65,67,69,-1,71,-1,73,-1,75,77,-1,79,-1,-1,-1,-1,81,-1,83,-1,85,-1,-1,-1,-1,-1,-1,-1,-1,-1,-1,-1,-1,-1,-1,-1,-1,87,-1,-1,-1,89,-1,-1,-1,91,-1,93,-1,-1,-1,-1,95,97,-1,-1,-1,-1,99,101,-1,103,105,107,-1,-1,-1,-1,-1,-1,-1,-1,-1,-1],"loss_changes":[3.1023676E4,2.4722246E3,1.6488633E3,3.1020508E2,2.7252795E2,1.1767529E2,2.160332E2,3.1285156E1,4.6598877E1,2.4661438E1,4.172644E1,3.4654785E1,3.39357E0,3.7625E1,1.529126E1,4.657715E0,2.864746E0,6.852295E0,4.6208496E0,3.4498334E-1,4.6089172E-2,1.1014313E1,6.8836975E-1,1.5655518E-2,3.1958008E0,1.600708E0,5.450344E-1,3.0458984E0,4.9121094E0,0E0,0E0,3.6523438E-1,5.522461E-1,5.686035E-1,0E0,1.6019287E0,1.1779785E-2,1.3476562E-1,0E0,1.4050895E-1,0E0,1.8920898E-3,0E0,6.055145E-1,6.140137E-1,0E0,3.7700653E-2,0E0,0E0,0E0,0E0,3.6843872E-1,0E0,1.4457035E-1,0E0,5.263672E-1,0E0,0E0,0E0,0E0,0E0,0E0,0E0,0E0,0E0,0E0,0E0,0E0,0E0,0E0,0E0,0E0,6.899816E-2,0E0,0E0,0E0,6.0272217E-3,0E0,0E0,0E0,1.0847092E-2,0E0,8.5357666E-2,0E0,0E0,0E0,0E0,1.7478645E-2,2.8187394E-2,0E0,0E0,0E0,0E0,4.15802E-2,2.0450592E-2,0E0,4.2045712E-3,2.362609E-3,1.3244014E-2,0E0,0E0,0E0,0E0,0E0,0E0,0E0,0E0,0E0,0E0],"parents":[2147483647,0,0,1,1,2,2,3,3,4,4,5,5,6,6,7,7,8,8,9,9,10,10,11,11,12,12,13,13,14,14,15,15,16,16,17,17,18,18,19,19,20,20,21,21,22,22,23,23,24,24,25,25,26,26,27,27,28,28,31,31,32,32,33,33,35,35,36,36,37,37,39,39,41,41,43,43,44,44,46,46,51,51,53,53,55,55,72,72,76,76,80,80,82,82,87,87,88,88,93,93,94,94,96,96,97,97,98,98],"right_children":[2,4,6,8,10,12,14,16,18,20,22,24,26,28,30,32,34,36,38,40,42,44,46,48,50,52,54,56,58,-1,-1,60,62,64,-1,66,68,70,-1,72,-1,74,-1,76,78,-1,80,-1,-1,-1,-1,82,-1,84,-1,86,-1,-1,-1,-1,-1,-1,-1,-1,-1,-1,-1,-1,-1,-1,-1,-1,88,-1,-1,-1,90,-1,-1,-1,92,-1,94,-1,-1,-1,-1,96,98,-1,-1,-1,-1,100,102,-1,104,106,108,-1,-1,-1,-1,-1,-1,-1,-1,-1,-1],"split_conditions":[4.9820155E-1,2.0962359E-1,8.089901E-1,9.705819E-2,5.818555E-1,1.180517E-1,1.6823223E-2,4.914835E-2,1.6738194E-1,4.8894882E-1,3.0000347E-1,5.134322E-1,1.6627184E-1,4.473502E-3,4.4525173E-2,2.7943654E-2,7.081066E-2,1.2796484E-1,2.0222251E-1,3.5563624E-1,2.2118817E-1,7.004363E-1,2.599157E-1,6.585704E-1,6.018001E-1,4.6425503E-1,4.0659654E-1,8.5249525E-1,8.925809E-3,-5.970019E-2,-5.175141E-2,1.6799537E-2,3.8042296E-2,6.246916E-2,4.6223007E-2,1.1416776E-1,5.733096E-1,5.196723E-1,2.973509E-2,2.8850633E-1,-8.031351E-3,4.945462E-1,-8.349168E-3,2.2633718E-1,1.9644731E-1,1.6830591E-2,3.508942E-1,-3.0765625E-2,-3.154873E-2,-4.211655E-2,-5.132375E-2,2.9589772E-1,-3.0618895E-2,5.7093316E-1,-1.9225297E-2,6.7547016E-2,-7.321216E-2,-7.030542E-2,-6.586704E-2,5.5758916E-2,5.448182E-2,5.293956E-2,5.140188E-2,4.9882665E-2,4.8194587E-2,4.3824058E-2,4.119192E-2,3.4923635E-2,3.8009297E-2,3.0321943E-2,3.420115E-2,8.6639E-3,4.18377E-1,-8.951071E-3,-9.317332E-3,2.3477003E-2,2.9310945E-1,2.8974961E-2,2.4349315E-2,1.0567977E-2,3.5404715E-1,-3.0363262E-2,5.812226E-1,-1.0029118E-2,-1.9057347E-2,-7.5174086E-2,-7.674586E-2,3.5998732E-1,4.2183644E-1,1.8160824E-2,1.7717965E-2,1.0097157E-2,9.519224E-3,5.7291985E-1,3.157416E-1,8.004308E-3,4.141336E-1,4.1854924E-1,4.5536223E-1,-1.9369494E-2,-2.0128556E-2,-2.488427E-2,-2.122863E-2,1.7600118E-3,1.4448192E-3,1.1617981E-3,9.2754606E-4,-6.626692E-3,3.196495E-4],"split_indices":[3,3,3,3,2,0,0,3,3,3,3,5,0,0,0,3,3,3,3,5,0,2,5,3,5,5,5,5,0,0,0,3,3,3,0,5,0,0,0,5,0,3,0,5,5,0,3,0,0,0,0,2,0,3,0,4,0,0,0,0,0,0,0,0,0,0,0,0,0,0,0,0,3,0,0,0,3,0,0,0,3,0,3,0,0,0,0,3,3,0,0,0,0,3,4,0,3,3,2,0,0,0,0,0,0,0,0,0,0],"split_type":[0,0,0,0,0,0,0,0,0,0,0,0,0,0,0,0,0,0,0,0,0,0,0,0,0,0,0,0,0,0,0,0,0,0,0,0,0,0,0,0,0,0,0,0,0,0,0,0,0,0,0,0,0,0,0,0,0,0,0,0,0,0,0,0,0,0,0,0,0,0,0,0,0,0,0,0,0,0,0,0,0,0,0,0,0,0,0,0,0,0,0,0,0,0,0,0,0,0,0,0,0,0,0,0,0,0,0,0,0],"sum_hessian":[2.68523E5,1.65683E5,1.0284E5,1.19526E5,4.6157E4,2.9312E4,7.3528E4,7.4458E4,4.5068E4,1.7834E4,2.8323E4,1.8939E4,1.0373E4,5.5752E4,1.7776E4,4.6089E4,2.8369E4,2.7251E4,1.7817E4,9.414E3,8.42E3,1.8898E4,9.425E3,8.854E3,1.0085E4,9.425E3,9.48E2,3.6747E4,1.9005E4,9.34E3,8.436E3,2.4082E4,2.2007E4,1.7887E4,1.0482E4,1.7808E4,9.443E3,9.429E3,8.388E3,9.343E3,7.1E1,5.257E3,3.163E3,9.395E3,9.503E3,2.97E2,9.128E3,3.239E3,5.615E3,9.324E3,7.61E2,9.155E3,2.7E2,7.94E2,1.54E2,2.7914E4,8.833E3,9.536E3,9.469E3,1.0443E4,1.3639E4,1.2583E4,9.424E3,9.42E3,8.467E3,8.631E3,9.177E3,1.76E2,9.267E3,2.45E2,9.184E3,4.6E1,9.297E3,4.17E3,1.087E3,3.78E2,9.017E3,5.83E2,8.92E3,3.897E3,5.231E3,6.5E1,9.09E3,7.6E2,3.4E1,9.312E3,1.8602E4,4.16E3,5.137E3,3.748E3,5.269E3,4.102E3,1.129E3,8.474E3,6.16E2,7E0,4.153E3,4.208E3,9.29E2,3.194E3,5.28E3,7E1,5.46E2,3.083E3,1.07E3,3.131E3,1.077E3,4E0,9.25E2],"tree_param":{"num_deleted":"0","num_feature":"8","num_nodes":"109","size_leaf_vector":"1"}},{"base_weights":[8.763428E-6,2.3149775E-1,-3.735111E-1,2.972323E-1,6.1290722E-2,-1.9975302E-1,-4.4287282E-1,2.4053039E-1,3.315853E-1,-2.2450589E-2,1.1409447E-1,-2.4056718E-1,-1.2604707E-1,-4.6940553E-1,-3.5965657E-1,2.6304272E-1,2.0607553E-1,3.4549078E-1,3.0881017E-1,7.958503E-3,-5.6421824E-2,1.3759413E-1,6.714033E-2,-2.010822E-1,-2.7533045E-1,-1.3113412E-1,-7.665131E-2,-4.8554465E-1,-4.378354E-1,-4.478363E-2,-3.8392904E-1,2.4407105E-1,2.7310306E-1,2.1931952E-1,2.5734311E-2,3.5256827E-1,3.3422795E-1,3.1519362E-1,3.9844595E-2,8.462565E-3,-6.961113E-3,-5.8087956E-2,-7.222395E-3,1.1658708E-1,1.5844452E-1,1.45833045E-2,6.578953E-2,-2.7301848E-2,-2.6622761E-2,-3.644684E-2,-4.442355E-2,-1.2843879E-1,-2.6515432E-2,-8.682104E-3,-1.6620047E-2,-4.901504E-1,-6.336333E-2,-5.6884836E-2,-6.0733855E-2,-5.681087E-2,-5.1593047E-2,3.2891843E-2,3.0232113E-2,3.7954606E-2,3.568183E-2,2.9600896E-2,2.6256546E-2,4.8083656E-2,4.676076E-2,4.549285E-2,4.4400338E-2,4.3170076E-2,4.1669045E-2,7.515345E-3,8.257852E-3,-7.7494388E-3,-8.066205E-3,2.0327039E-2,1.1513841E-1,2.5088439E-2,2.1072978E-2,9.143678E-3,6.416622E-2,-1.2697156E-1,-1.3480935E-1,-6.505796E-2,-6.641807E-2,1.0824967E-2,6.1686146E-3,1.5716728E-2,1.5333902E-2,8.739489E-3,8.234831E-3,-1.6768912E-2,-1.7324505E-2,-1.7760811E-2,-1.3959008E-1,6.9234855E-3,1.0754101E-2,7.0682876E-3,1.9616673E-3,-1.8097324E-2,-2.029923E-2,1.5160863E-3,1.2516809E-3,7.926737E-4,1.0035365E-3,-5.919825E-3,2.9113688E-4],"categories":[],"categories_nodes":[],"categories_segments":[],"categories_sizes":[],"default_left":[0,0,0,0,0,0,0,0,0,0,0,0,0,0,0,0,0,0,0,0,0,0,0,0,0,0,0,0,0,0,0,0,0,0,0,0,0,0,0,0,0,0,0,0,0,0,0,0,0,0,0,0,0,0,0,0,0,0,0,0,0,0,0,0,0,0,0,0,0,0,0,0,0,0,0,0,0,0,0,0,0,0,0,0,0,0,0,0,0,0,0,0,0,0,0,0,0,0,0,0,0,0,0,0,0,0,0,0,0],"id":1,"left_children":[1,3,5,7,9,11,13,15,17,19,21,23,25,27,29,31,33,35,37,39,41,43,45,47,49,51,53,55,57,-1,59,61,63,65,-1,67,69,71,-1,73,-1,75,-1,77,79,-1,81,-1,-1,-1,-1,83,-1,-1,-1,85,-1,-1,-1,-1,-1,-1,-1,-1,-1,-1,-1,-1,-1,-1,-1,-1,-1,-1,87,-1,-1,-1,89,-1,-1,-1,91,93,95,-1,-1,97,99,-1,-1,-1,-1,-1,-1,-1,101,-1,103,105,107,-1,-1,-1,-1,-1,-1,-1,-1],"loss_changes":[2.3192617E4,1.8527832E3,1.2368252E3,2.3261816E2,2.0401813E2,8.805713E1,1.6178125E2,3.490796E1,2.345166E1,1.843288E1,3.1212738E1,2.5811768E1,2.6128082E0,2.8123047E1,1.1452637E1,5.1358643E0,3.4645996E0,3.5634766E0,2.2028809E0,2.8370374E-1,3.559494E-2,8.240997E0,5.184784E-1,1.1199951E-2,2.3884888E0,1.6549683E0,5.4761744E-1,2.265625E0,3.644287E0,0E0,4.23584E-2,5.2490234E-3,1.1907959E0,9.9823E-2,0E0,5.593262E-1,1.8115234E-1,4.8498535E-1,0E0,9.010959E-2,0E0,1.4533997E-3,0E0,4.5158386E-1,4.642334E-1,0E0,2.7572632E-2,0E0,0E0,0E0,0E0,6.788635E-2,0E0,0E0,0E0,3.959961E-1,0E0,0E0,0E0,0E0,0E0,0E0,0E0,0E0,0E0,0E0,0E0,0E0,0E0,0E0,0E0,0E0,0E0,0E0,4.9806714E-2,0E0,0E0,0E0,4.501343E-3,0E0,0E0,0E0,8.0394745E-3,1.4816284E-2,4.470825E-3,0E0,0E0,1.1453122E-2,1.9398779E-2,0E0,0E0,0E0,0E0,0E0,0E0,0E0,1.4883995E-2,0E0,2.9889345E-3,1.8896312E-3,8.477732E-3,0E0,0E0,0E0,0E0,0E0,0E0,0E0,0E0],"parents":[2147483647,0,0,1,1,2,2,3,3,4,4,5,5,6,6,7,7,8,8,9,9,10,10,11,11,12,12,13,13,14,14,15,15,16,16,17,17,18,18,19,19,20,20,21,21,22,22,23,23,24,24,25,25,26,26,27,27,28,28,30,30,31,31,32,32,33,33,35,35,36,36,37,37,39,39,41,41,43,43,44,44,46,46,51,51,55,55,74,74,78,78,82,82,83,83,84,84,87,87,88,88,96,96,98,98,99,99,100,100],"right_children":[2,4,6,8,10,12,14,16,18,20,22,24,26,28,30,32,34,36,38,40,42,44,46,48,50,52,54,56,58,-1,60,62,64,66,-1,68,70,72,-1,74,-1,76,-1,78,80,-1,82,-1,-1,-1,-1,84,-1,-1,-1,86,-1,-1,-1,-1,-1,-1,-1,-1,-1,-1,-1,-1,-1,-1,-1,-1,-1,-1,88,-1,-1,-1,90,-1,-1,-1,92,94,96,-1,-1,98,100,-1,-1,-1,-1,-1,-1,-1,102,-1,104,106,108,-1,-1,-1,-1,-1,-1,-1,-1],"split_conditions":[4.9820155E-1,2.0962359E-1,8.089901E-1,8.785228E-1,5.818555E-1,2.9589772E-1,4.678612E-2,1.6738194E-1,4.914835E-2,4.8894882E-1,3.0000347E-1,5.134322E-1,3.7530178E-1,1.9000199E-2,8.186082E-1,8.38473E-1,2.0222251E-1,3.1139882E-2,7.8603305E-2,3.5563624E-1,3.5780963E-1,7.004363E-1,2.599157E-1,2.9264358E-1,6.018001E-1,4.6425503E-1,4.0659654E-1,8.5249525E-1,8.6898553E-1,-4.478363E-2,2.1047918E-1,1.5924753E-1,1.0498919E-1,1.8353139E-1,2.5734311E-2,1.9365458E-2,4.165649E-2,6.246916E-2,3.9844595E-2,2.8850633E-1,-6.961113E-3,4.945462E-1,-7.222395E-3,2.2633718E-1,1.9644731E-1,1.45833045E-2,3.508942E-1,-2.7301848E-2,-2.6622761E-2,-3.644684E-2,-4.442355E-2,5.7750195E-1,-2.6515432E-2,-8.682104E-3,-1.6620047E-2,6.7547016E-2,-6.336333E-2,-5.6884836E-2,-6.0733855E-2,-5.681087E-2,-5.1593047E-2,3.2891843E-2,3.0232113E-2,3.7954606E-2,3.568183E-2,2.9600896E-2,2.6256546E-2,4.8083656E-2,4.676076E-2,4.549285E-2,4.4400338E-2,4.3170076E-2,4.1669045E-2,7.515345E-3,4.18377E-1,-7.7494388E-3,-8.066205E-3,2.0327039E-2,2.9310945E-1,2.5088439E-2,2.1072978E-2,9.143678E-3,3.5404715E-1,5.7291985E-1,5.812226E-1,-6.505796E-2,-6.641807E-2,3.5998732E-1,4.2183644E-1,1.5716728E-2,1.5333902E-2,8.739489E-3,8.234831E-3,-1.6768912E-2,-1.7324505E-2,-1.7760811E-2,4.276088E-1,6.9234855E-3,4.141336E-1,5.246269E-1,3.5846245E-1,-1.8097324E-2,-2.029923E-2,1.5160863E-3,1.2516809E-3,7.926737E-4,1.0035365E-3,-5.919825E-3,2.9113688E-4],"split_indices":[3,3,3,2,2,2,1,3,3,3,3,5,2,1,3,2,3,3,3,5,1,2,5,2,5,5,5,5,5,0,4,5,3,5,0,3,3,3,0,5,0,3,0,5,5,0,3,0,0,0,0,3,0,0,0,4,0,0,0,0,0,0,0,0,0,0,0,0,0,0,0,0,0,0,3,0,0,0,3,0,0,0,3,3,3,0,0,3,3,0,0,0,0,0,0,0,5,0,3,2,1,0,0,0,0,0,0,0,0],"split_type":[0,0,0,0,0,0,0,0,0,0,0,0,0,0,0,0,0,0,0,0,0,0,0,0,0,0,0,0,0,0,0,0,0,0,0,0,0,0,0,0,0,0,0,0,0,0,0,0,0,0,0,0,0,0,0,0,0,0,0,0,0,0,0,0,0,0,0,0,0,0,0,0,0,0,0,0,0,0,0,0,0,0,0,0,0,0,0,0,0,0,0,0,0,0,0,0,0,0,0,0,0,0,0,0,0,0,0,0,0],"sum_hessian":[2.68227E5,1.65598E5,1.02629E5,1.19461E5,4.6137E4,2.9281E4,7.3348E4,4.5073E4,7.4388E4,1.7842E4,2.8295E4,1.8844E4,1.0437E4,5.5612E4,1.7736E4,2.7257E4,1.7816E4,4.6179E4,2.8209E4,9.415E3,8.427E3,1.8856E4,9.439E3,8.826E3,1.0018E4,9.461E3,9.76E2,3.679E4,1.8822E4,8.42E3,9.316E3,9.454E3,1.7803E4,9.413E3,8.403E3,2.834E4,1.7839E4,1.8782E4,9.427E3,9.337E3,7.8E1,5.24E3,3.187E3,9.396E3,9.46E3,2.97E2,9.142E3,5.672E3,3.154E3,9.26E3,7.58E2,9.092E3,3.69E2,7.77E2,1.99E2,2.8003E4,8.787E3,8.86E3,9.962E3,1.27E2,9.189E3,9.286E3,1.68E2,8.39E3,9.413E3,9.168E3,2.45E2,1.4722E4,1.3618E4,9.446E3,8.393E3,9.364E3,9.418E3,3.9E1,9.298E3,4.137E3,1.103E3,3.75E2,9.021E3,5.85E2,8.875E3,3.914E3,5.228E3,7.407E3,1.685E3,9.359E3,1.8644E4,4.17E3,5.128E3,3.771E3,5.25E3,4.136E3,1.092E3,3.181E3,4.226E3,1.075E3,6.1E2,6E0,4.164E3,4.224E3,9.04E2,4.28E2,1.82E2,3.076E3,1.088E3,1.051E3,3.173E3,3E0,9.01E2],"tree_param":{"num_deleted":"0","num_feature":"8","num_nodes":"109","size_leaf_vector":"1"}},{"base_weights":[-5.7600704E-5,2.0029385E-1,-3.2346344E-1,2.5722927E-1,5.31353E-2,-1.7300329E-1,-3.8327175E-1,2.8695786E-1,2.0819801E-1,-1.9465506E-2,9.8711945E-2,-2.0838316E-1,-1.0887404E-1,-4.0617648E-1,-3.1141979E-1,3.0009696E-1,2.68883E-1,2.2767365E-1,1.7829385E-1,-4.8841413E-2,6.882641E-3,1.1918972E-1,5.8101077E-2,-1.7400286E-1,-2.3823045E-1,-1.1331077E-1,-6.591632E-2,-3.777952E-1,-4.1961548E-1,-3.3231965E-1,-3.8757473E-2,3.0778292E-1,2.9343325E-1,2.785677E-1,2.6150385E-1,2.3634428E-1,2.1122928E-1,1.8977056E-1,2.2272589E-2,-4.6971932E-2,-6.819183E-3,7.30588E-3,-6.0710893E-3,1.3685629E-1,1.0084642E-1,1.263022E-2,5.691539E-2,-2.3286702E-2,-2.4051718E-2,-2.343809E-1,-3.845426E-2,-1.11555144E-1,-2.2953738E-2,-5.7970818E-2,-1.4428318E-2,-5.253328E-2,-4.932512E-2,-4.2416912E-1,-5.4736823E-2,-4.9230263E-2,-4.4653386E-2,4.2013954E-2,4.114655E-2,4.000979E-2,3.8870998E-2,3.8139388E-2,3.719958E-2,3.5986666E-2,2.5625506E-1,3.2817878E-2,3.0848466E-2,2.6195448E-2,2.8466966E-2,2.2744844E-2,2.5617769E-2,-6.2499023E-3,-6.526216E-3,6.94882E-3,7.099657E-3,2.171068E-2,1.3525261E-1,1.8503485E-2,9.961706E-2,7.91514E-3,5.5501502E-2,-3.1131068E-2,-3.182049E-2,-1.11148395E-1,-2.2905838E-2,-7.4982126E-3,-1.4389755E-2,-5.6303233E-2,-5.747896E-2,3.4578558E-2,3.308088E-2,9.340659E-3,5.2873935E-3,1.828694E-2,1.7768545E-2,1.3470649E-2,1.2933276E-2,7.5635915E-3,7.1227043E-3,-1.0987322E-1,-1.1658364E-1,9.269816E-3,3.513482E-2,6.1174226E-3,1.5403554E-3,-1.4508542E-2,-1.4994267E-2,-1.2044037E-1,-1.5372264E-2,1.305074E-3,1.0841623E-3,6.566155E-4,6.173441E-3,8.7077473E-4,6.9144514E-4,2.5071486E-4,-5.564756E-3,-1.8651662E-2,-1.5885415E-2],"categories":[],"categories_nodes":[],"categories_segments":[],"categories_sizes":[],"default_left":[0,0,0,0,0,0,0,0,0,0,0,0,0,0,0,0,0,0,0,0,0,0,0,0,0,0,0,0,0,0,0,0,0,0,0,0,0,0,0,0,0,0,0,0,0,0,0,0,0,0,0,0,0,0,0,0,0,0,0,0,0,0,0,0,0,0,0,0,0,0,0,0,0,0,0,0,0,0,0,0,0,0,0,0,0,0,0,0,0,0,0,0,0,0,0,0,0,0,0,0,0,0,0,0,0,0,0,0,0,0,0,0,0,0,0,0,0,0,0,0,0,0,0],"id":2,"left_children":[1,3,5,7,9,11,13,15,17,19,21,23,25,27,29,31,33,35,37,39,41,43,45,47,49,51,53,55,57,59,-1,61,63,65,67,69,71,73,-1,75,-1,77,-1,79,81,-1,83,-1,-1,85,-1,87,-1,89,-1,-1,-1,91,-1,-1,-1,-1,-1,-1,-1,-1,-1,-1,93,-1,-1,-1,-1,-1,-1,-1,-1,-1,95,-1,97,-1,99,-1,101,-1,-1,103,-1,-1,-1,-1,-1,-1,-1,105,107,-1,-1,-1,-1,-1,-1,109,111,113,115,117,119,-1,-1,121,-1,-1,-1,-1,-1,-1,-1,-1,-1,-1,-1],"loss_changes":[1.7379531E4,1.3876475E3,9.232344E2,1.7400732E2,1.5288638E2,6.619702E1,1.2070117E2,1.7574219E1,2.6213501E1,1.3793028E1,2.3598602E1,1.9258545E1,1.9706955E0,2.1074219E1,8.599487E0,2.1137695E0,2.1640625E0,3.842163E0,2.5811157E0,2.6407242E-2,2.070713E-1,6.100952E0,3.980255E-1,9.185791E-3,1.7733765E0,9.262619E-1,3.1333542E-1,2.3925781E0,2.0463867E0,4.4677734E-2,0E0,8.4472656E-2,3.2385254E-1,6.262207E-2,4.8120117E-1,8.9971924E-1,4.3029785E-3,8.047485E-2,0E0,1.1339188E-3,0E0,8.482888E-2,0E0,3.5513306E-1,4.034729E-1,0E0,2.1446228E-2,0E0,0E0,4.058838E-3,0E0,1.9883728E-1,0E0,8.450079E-2,0E0,0E0,0E0,2.9492188E-1,0E0,0E0,0E0,0E0,0E0,0E0,0E0,0E0,0E0,0E0,3.479004E-3,0E0,0E0,0E0,0E0,0E0,0E0,0E0,0E0,0E0,3.7631273E-2,0E0,2.89917E-4,0E0,5.355835E-3,0E0,6.565094E-3,0E0,0E0,5.0048828E-2,0E0,0E0,0E0,0E0,0E0,0E0,0E0,7.2522163E-3,1.5951872E-2,0E0,0E0,0E0,0E0,0E0,0E0,1.1451721E-2,1.7948151E-3,2.0684004E-3,3.3493415E-3,1.4186352E-3,1.2969949E-2,0E0,0E0,1.1149406E-2,0E0,0E0,0E0,0E0,0E0,0E0,0E0,0E0,0E0,0E0,0E0],"parents":[2147483647,0,0,1,1,2,2,3,3,4,4,5,5,6,6,7,7,8,8,9,9,10,10,11,11,12,12,13,13,14,14,15,15,16,16,17,17,18,18,19,19,20,20,21,21,22,22,23,23,24,24,25,25,26,26,27,27,28,28,29,29,31,31,32,32,33,33,34,34,35,35,36,36,37,37,39,39,41,41,43,43,44,44,46,46,49,49,51,51,53,53,57,57,68,68,78,78,80,80,82,82,84,84,87,87,95,95,96,96,103,103,104,104,105,105,106,106,107,107,108,108,111,111],"right_children":[2,4,6,8,10,12,14,16,18,20,22,24,26,28,30,32,34,36,38,40,42,44,46,48,50,52,54,56,58,60,-1,62,64,66,68,70,72,74,-1,76,-1,78,-1,80,82,-1,84,-1,-1,86,-1,88,-1,90,-1,-1,-1,92,-1,-1,-1,-1,-1,-1,-1,-1,-1,-1,94,-1,-1,-1,-1,-1,-1,-1,-1,-1,96,-1,98,-1,100,-1,102,-1,-1,104,-1,-1,-1,-1,-1,-1,-1,106,108,-1,-1,-1,-1,-1,-1,110,112,114,116,118,120,-1,-1,122,-1,-1,-1,-1,-1,-1,-1,-1,-1,-1,-1],"split_conditions":[4.9820155E-1,2.0962359E-1,8.089901E-1,9.705819E-2,3.2200176E-1,1.180517E-1,4.678612E-2,4.7336634E-2,1.6738194E-1,3.5846245E-1,3.0000347E-1,5.134322E-1,1.6627184E-1,9.495512E-1,4.4525173E-2,2.485938E-2,6.706744E-2,1.2796484E-1,2.0222251E-1,4.939411E-1,3.5563624E-1,2.2633718E-1,2.599157E-1,6.6197014E-1,6.018001E-1,4.6425503E-1,4.0659654E-1,8.925809E-3,8.5249525E-1,2.1047918E-1,-3.8757473E-2,1.42253125E-2,3.4753893E-2,5.3274926E-2,7.8603305E-2,1.1416776E-1,5.733096E-1,5.196723E-1,2.2272589E-2,4.890605E-1,-6.819183E-3,3.5998732E-1,-6.0710893E-3,1.9644731E-1,2.504797E-1,1.263022E-2,3.508942E-1,-2.3286702E-2,-2.4051718E-2,7.3978055E-1,-3.845426E-2,6.554424E-1,-2.2953738E-2,5.7093316E-1,-1.4428318E-2,-5.253328E-2,-4.932512E-2,6.7547016E-2,-5.4736823E-2,-4.9230263E-2,-4.4653386E-2,4.2013954E-2,4.114655E-2,4.000979E-2,3.8870998E-2,3.8139388E-2,3.719958E-2,3.5986666E-2,1.0061553E-1,3.2817878E-2,3.0848466E-2,2.6195448E-2,2.8466966E-2,2.2744844E-2,2.5617769E-2,-6.2499023E-3,-6.526216E-3,6.94882E-3,4.18377E-1,2.171068E-2,2.473274E-1,1.8503485E-2,2.960701E-1,7.91514E-3,3.5404715E-1,-3.1131068E-2,-3.182049E-2,5.7750195E-1,-2.2905838E-2,-7.4982126E-3,-1.4389755E-2,-5.6303233E-2,-5.747896E-2,3.4578558E-2,3.308088E-2,3.636269E-1,4.2183644E-1,1.828694E-2,1.7768545E-2,1.3470649E-2,1.2933276E-2,7.5635915E-3,7.1227043E-3,5.7291985E-1,2.7140176E-1,4.141336E-1,2.8127694E-1,4.1854924E-1,4.8894882E-1,-1.4508542E-2,-1.4994267E-2,3.157416E-1,-1.5372264E-2,1.305074E-3,1.0841623E-3,6.566155E-4,6.173441E-3,8.7077473E-4,6.9144514E-4,2.5071486E-4,-5.564756E-3,-1.8651662E-2,-1.5885415E-2],"split_indices":[3,3,3,3,0,0,1,3,3,1,3,5,0,3,0,3,3,3,3,3,5,5,5,3,5,5,5,0,5,4,0,3,3,3,3,5,0,0,0,3,0,3,0,5,3,0,3,0,0,3,0,3,0,3,0,0,0,4,0,0,0,0,0,0,0,0,0,0,5,0,0,0,0,0,0,0,0,0,3,0,3,0,3,0,3,0,0,3,0,0,0,0,0,0,0,4,3,0,0,0,0,0,0,3,1,3,0,3,3,0,0,4,0,0,0,0,0,0,0,0,0,0,0],"split_type":[0,0,0,0,0,0,0,0,0,0,0,0,0,0,0,0,0,0,0,0,0,0,0,0,0,0,0,0,0,0,0,0,0,0,0,0,0,0,0,0,0,0,0,0,0,0,0,0,0,0,0,0,0,0,0,0,0,0,0,0,0,0,0,0,0,0,0,0,0,0,0,0,0,0,0,0,0,0,0,0,0,0,0,0,0,0,0,0,0,0,0,0,0,0,0,0,0,0,0,0,0,0,0,0,0,0,0,0,0,0,0,0,0,0,0,0,0,0,0,0,0,0,0],"sum_hessian":[2.68222E5,1.6562E5,1.02602E5,1.19417E5,4.6203E4,2.9185E4,7.3417E4,7.4339E4,4.5078E4,1.7819E4,2.8384E4,1.8807E4,1.0378E4,5.5667E4,1.775E4,4.3038E4,3.1301E4,2.7295E4,1.7783E4,8.425E3,9.394E3,1.8868E4,9.516E3,8.743E3,1.0064E4,9.405E3,9.73E2,1.7898E4,3.7769E4,9.376E3,8.374E3,1.9965E4,2.3073E4,1.352E4,1.7781E4,1.7863E4,9.432E3,9.369E3,8.414E3,4.178E3,4.247E3,9.319E3,7.5E1,9.608E3,9.26E3,3.03E2,9.213E3,7.276E3,1.467E3,9.315E3,7.49E2,9.128E3,2.77E2,8.18E2,1.55E2,8.462E3,9.436E3,2.7892E4,9.877E3,1.35E2,9.241E3,6.299E3,1.3666E4,1.2529E4,1.0544E4,4.144E3,9.376E3,8.355E3,9.426E3,8.686E3,9.177E3,1.74E2,9.258E3,2.62E2,9.107E3,3.117E3,1.061E3,4.2E1,9.277E3,5.85E2,9.023E3,2.97E2,8.963E3,3.917E3,5.296E3,3.786E3,5.529E3,9.068E3,6E1,7.84E2,3.4E1,9.373E3,1.8519E4,8.831E3,5.95E2,4.146E3,5.131E3,7.522E3,1.501E3,7.873E3,1.09E3,4.15E3,1.146E3,7.362E3,1.706E3,4.136E3,1E1,4.2E3,9.31E2,3.171E3,4.191E3,6.29E2,1.077E3,3.054E3,1.082E3,3E0,7E0,3.084E3,1.116E3,9.25E2,6E0,6.7E1,5.62E2],"tree_param":{"num_deleted":"0","num_feature":"8","num_nodes":"123","size_leaf_vector":"1"}},{"base_weights":[-2.0627865E-4,-2.7981624E-1,1.7349967E-1,-3.3163506E-1,-1.497571E-1,4.6237536E-2,2.2269268E-1,-3.5152277E-1,-2.6942405E-1,-1.8032491E-1,-9.425701E-2,-1.6771156E-2,8.570909E-2,1.802021E-1,2.4831934E-1,-3.636172E-1,-3.2788786E-1,-2.8755268E-1,-3.354724E-2,-1.5059869E-1,-2.0628724E-1,-9.81238E-2,-5.6888465E-2,-4.2243857E-2,6.006987E-3,5.0235108E-2,1.032332E-1,1.5437277E-1,1.9694935E-1,2.3130672E-1,2.5875732E-1,-3.671006E-1,-4.747126E-2,-4.2593636E-2,-3.380152E-1,-4.265583E-2,-3.8643733E-2,-2.0465458E-2,-1.9903084E-2,-2.0287448E-1,-3.3256195E-2,-9.657894E-2,-1.9877644E-2,-5.010348E-2,-1.249833E-2,-4.345159E-2,-5.409263E-3,6.3464474E-3,-5.2806004E-3,1.0918227E-2,4.925818E-2,8.738278E-2,1.1875219E-1,1.9273117E-2,1.6413783E-1,1.8275884E-1,2.0451139E-1,2.2174436E-1,2.3606578E-1,2.5025675E-1,2.6408932E-1,-4.9056698E-2,-5.0104965E-2,-4.7965184E-2,-4.538511E-2,-2.8045975E-2,-2.7175985E-2,-1.9850265E-2,-9.618691E-2,-1.2420522E-2,-4.8284784E-2,-6.040478E-3,-5.794237E-3,6.218786E-3,5.970911E-3,4.802507E-2,6.8502976E-3,1.5215532E-2,8.6261265E-2,1.8800786E-2,1.5790764E-2,2.217139E-2,1.9672012E-2,2.4629235E-2,2.2688875E-2,2.840435E-2,2.6699062E-2,2.992437E-2,2.8584972E-2,3.1195512E-2,3.2336146E-2,3.3237275E-2,3.4070026E-2,2.6132038E-1,3.6169197E-2,-1.0452044E-1,-9.5506124E-2,-6.3517555E-3,-6.9269487E-3,4.6164147E-3,8.191455E-3,6.153457E-3,6.545709E-3,1.14806015E-2,1.1786348E-2,3.48234E-2,3.54783E-2,-1.6805967E-2,-1.3747215E-2,-1.3037868E-2,-1.2553951E-2,1.4668131E-3,5.339405E-3,8.066203E-3,3.8234342E-2,-4.6815546E-3,2.2277207E-4,6.1777426E-4,7.5291976E-4,9.3223073E-4,1.1389985E-3,5.742246E-4,5.716934E-3],"categories":[],"categories_nodes":[],"categories_segments":[],"categories_sizes":[],"default_left":[0,0,0,0,0,0,0,0,0,0,0,0,0,0,0,0,0,0,0,0,0,0,0,0,0,0,0,0,0,0,0,0,0,0,0,0,0,0,0,0,0,0,0,0,0,0,0,0,0,0,0,0,0,0,0,0,0,0,0,0,0,0,0,0,0,0,0,0,0,0,0,0,0,0,0,0,0,0,0,0,0,0,0,0,0,0,0,0,0,0,0,0,0,0,0,0,0,0,0,0,0,0,0,0,0,0,0,0,0,0,0,0,0,0,0,0,0,0,0,0,0,0,0],"id":3,"left_children":[1,3,5,7,9,11,13,15,17,19,21,23,25,27,29,31,33,35,-1,37,39,41,43,45,47,49,51,53,55,57,59,61,-1,-1,63,-1,-1,-1,-1,65,-1,67,-1,69,-1,71,-1,73,-1,-1,75,77,79,-1,81,83,85,87,89,91,93,-1,-1,-1,-1,-1,-1,-1,95,-1,97,-1,-1,99,-1,101,-1,-1,103,-1,-1,-1,-1,-1,-1,-1,-1,-1,-1,-1,-1,-1,-1,105,-1,107,109,-1,-1,111,113,-1,-1,-1,-1,-1,-1,-1,-1,-1,-1,115,117,119,121,-1,-1,-1,-1,-1,-1,-1,-1],"loss_changes":[1.3028928E4,6.927114E2,1.0358369E3,9.084668E1,4.9670532E1,1.1472661E2,1.2989502E2,1.580127E1,6.436157E0,1.454364E1,1.497757E0,1.0309617E1,1.7626053E1,1.9391235E1,1.3157715E1,1.2675781E0,2.071045E0,2.34375E-2,0E0,1.2542725E-2,1.3537903E0,7.0770264E-1,2.3409128E-1,1.9031525E-2,1.4432693E-1,2.7908134E-1,4.6591187E0,1.90271E0,2.8850098E0,1.236084E0,2.0246582E0,2.3999023E-1,0E0,0E0,2.4169922E-2,0E0,0E0,0E0,0E0,6.5307617E-3,0E0,1.6835785E-1,0E0,5.8840036E-2,0E0,1.0700226E-3,0E0,4.492125E-2,0E0,0E0,1.597023E-2,2.6076508E-1,2.6901245E-1,0E0,7.809448E-2,2.1362305E-3,6.70166E-1,6.072998E-3,2.8356934E-1,1.07177734E-1,2.9516602E-1,0E0,0E0,0E0,0E0,0E0,0E0,0E0,4.1511536E-2,0E0,3.2114983E-4,0E0,0E0,2.930212E-2,0E0,5.1202774E-3,0E0,0E0,3.8528442E-3,0E0,0E0,0E0,0E0,0E0,0E0,0E0,0E0,0E0,0E0,0E0,0E0,0E0,0E0,3.6987305E-2,0E0,1.9855022E-2,1.6593933E-2,0E0,0E0,1.1660188E-2,1.53416395E-2,0E0,0E0,0E0,0E0,0E0,0E0,0E0,0E0,0E0,0E0,6.602944E-3,7.705167E-4,1.8152893E-3,2.269784E-3,0E0,0E0,0E0,0E0,0E0,0E0,0E0,0E0],"parents":[2147483647,0,0,1,1,2,2,3,3,4,4,5,5,6,6,7,7,8,8,9,9,10,10,11,11,12,12,13,13,14,14,15,15,16,16,17,17,19,19,20,20,21,21,22,22,23,23,24,24,25,25,26,26,27,27,28,28,29,29,30,30,31,31,34,34,39,39,41,41,43,43,45,45,47,47,50,50,51,51,52,52,54,54,55,55,56,56,57,57,58,58,59,59,60,60,68,68,70,70,73,73,75,75,78,78,93,93,95,95,96,96,99,99,100,100,111,111,112,112,113,113,114,114],"right_children":[2,4,6,8,10,12,14,16,18,20,22,24,26,28,30,32,34,36,-1,38,40,42,44,46,48,50,52,54,56,58,60,62,-1,-1,64,-1,-1,-1,-1,66,-1,68,-1,70,-1,72,-1,74,-1,-1,76,78,80,-1,82,84,86,88,90,92,94,-1,-1,-1,-1,-1,-1,-1,96,-1,98,-1,-1,100,-1,102,-1,-1,104,-1,-1,-1,-1,-1,-1,-1,-1,-1,-1,-1,-1,-1,-1,106,-1,108,110,-1,-1,112,114,-1,-1,-1,-1,-1,-1,-1,-1,-1,-1,116,118,120,122,-1,-1,-1,-1,-1,-1,-1,-1],"split_conditions":[4.4352803E-1,4.977439E-2,7.469496E-1,4.678612E-2,1.180517E-1,3.2200176E-1,8.785228E-1,1.9000199E-2,4.4525173E-2,5.134322E-1,1.6627184E-1,3.5846245E-1,6.468674E-1,7.974664E-1,9.355742E-1,8.5249525E-1,8.6898553E-1,2.1047918E-1,-3.354724E-2,2.9264358E-1,6.018001E-1,4.6425503E-1,4.0659654E-1,3.5780963E-1,3.5563624E-1,2.599157E-1,7.004363E-1,7.573738E-1,7.71011E-1,9.010582E-1,9.577307E-1,2.2157788E-1,-4.747126E-2,-4.2593636E-2,1.8960044E-2,-4.265583E-2,-3.8643733E-2,-2.0465458E-2,-1.9903084E-2,2.163881E-1,-3.3256195E-2,2.9589772E-1,-1.9877644E-2,3.752824E-1,-1.249833E-2,4.481559E-1,-5.409263E-3,5.818555E-1,-5.2806004E-3,1.0918227E-2,5.9504896E-1,2.2633718E-1,1.9644731E-1,1.9273117E-2,1.8353139E-1,1.5924753E-1,1.1416776E-1,1.0061553E-1,9.1905373E-1,9.4483435E-1,9.751255E-1,-4.9056698E-2,-5.0104965E-2,-4.7965184E-2,-4.538511E-2,-2.8045975E-2,-2.7175985E-2,-1.9850265E-2,3.6316198E-1,-1.2420522E-2,3.755582E-1,-6.040478E-3,-5.794237E-3,5.247866E-1,5.970911E-3,5.9046245E-1,6.8502976E-3,1.5215532E-2,6.5722704E-1,1.8800786E-2,1.5790764E-2,2.217139E-2,1.9672012E-2,2.4629235E-2,2.2688875E-2,2.840435E-2,2.6699062E-2,2.992437E-2,2.8584972E-2,3.1195512E-2,3.2336146E-2,3.3237275E-2,3.4070026E-2,9.6539086E-1,3.6169197E-2,3.157416E-1,3.728262E-1,-6.3517555E-3,-6.9269487E-3,5.2026767E-1,3.626061E-1,6.153457E-3,6.545709E-3,1.14806015E-2,1.1786348E-2,3.48234E-2,3.54783E-2,-1.6805967E-2,-1.3747215E-2,-1.3037868E-2,-1.2553951E-2,4.5536223E-1,5.246269E-1,5.312971E-1,2.8127694E-1,-4.6815546E-3,2.2277207E-4,6.1777426E-4,7.5291976E-4,9.3223073E-4,1.1389985E-3,5.742246E-4,5.716934E-3],"split_indices":[2,0,2,1,0,0,2,1,0,5,0,1,2,2,2,5,5,4,0,2,5,5,5,1,5,5,2,2,1,2,2,4,0,0,4,0,0,0,0,2,0,2,0,2,0,2,0,2,0,0,2,5,5,0,5,5,5,5,2,2,2,0,0,0,0,0,0,0,2,0,5,0,0,2,0,2,0,0,2,0,0,0,0,0,0,0,0,0,0,0,0,0,0,2,0,4,2,0,0,2,4,0,0,0,0,0,0,0,0,0,0,2,2,2,0,0,0,0,0,0,0,0,0],"split_type":[0,0,0,0,0,0,0,0,0,0,0,0,0,0,0,0,0,0,0,0,0,0,0,0,0,0,0,0,0,0,0,0,0,0,0,0,0,0,0,0,0,0,0,0,0,0,0,0,0,0,0,0,0,0,0,0,0,0,0,0,0,0,0,0,0,0,0,0,0,0,0,0,0,0,0,0,0,0,0,0,0,0,0,0,0,0,0,0,0,0,0,0,0,0,0,0,0,0,0,0,0,0,0,0,0,0,0,0,0,0,0,0,0,0,0,0,0,0,0,0,0,0,0],"sum_hessian":[2.68249E5,1.0279E5,1.65459E5,7.3503E4,2.9287E4,4.6128E4,1.19331E5,5.5694E4,1.7809E4,1.8884E4,1.0403E4,1.7767E4,2.8361E4,4.4897E4,7.4434E4,3.6832E4,1.8862E4,9.369E3,8.44E3,8.807E3,1.0077E4,9.426E3,9.77E2,8.387E3,9.38E3,9.379E3,1.8982E4,1.7664E4,2.7233E4,2.8312E4,4.6122E4,2.788E4,8.952E3,8.888E3,9.974E3,1.2E2,9.249E3,5.679E3,3.128E3,9.305E3,7.72E2,9.144E3,2.82E2,8.24E2,1.53E2,5.266E3,3.121E3,9.311E3,6.9E1,2.85E2,9.094E3,9.394E3,9.588E3,8.248E3,9.416E3,9.476E3,1.7757E4,9.424E3,1.8888E4,1.7797E4,2.8325E4,1.8652E4,9.228E3,3.91E2,9.583E3,1.331E3,7.974E3,6.7E1,9.077E3,3.2E1,7.92E2,1.122E3,4.144E3,9.281E3,3E1,5.211E3,3.883E3,3.89E2,9.005E3,6.03E2,8.985E3,9.102E3,3.14E2,9.303E3,1.73E2,8.571E3,9.186E3,8.83E3,5.94E2,9.396E3,9.492E3,8.37E3,9.427E3,1.7805E4,1.052E4,6.74E2,8.403E3,6.02E2,1.9E2,5.123E3,4.158E3,1.11E3,4.101E3,5.253E3,3.752E3,8.456E3,9.349E3,6.5E1,6.09E2,5.175E3,3.228E3,9.57E2,4.166E3,4.142E3,1.6E1,4E0,9.53E2,1.063E3,3.103E3,1.075E3,3.067E3,2E0,1.4E1],"tree_param":{"num_deleted":"0","num_feature":"8","num_nodes":"123","size_leaf_vector":"1"}},{"base_weights":[-1.3251867E-4,-2.4208678E-1,1.5001827E-1,-2.869912E-1,-1.2964062E-1,3.9764944E-2,1.9263853E-1,-3.042337E-1,-2.3324221E-1,-1.560272E-1,-8.157086E-2,-1.456428E-2,7.405087E-2,1.5587115E-1,2.1487848E-1,-3.146993E-1,-2.8384224E-1,-2.4884604E-1,-2.9032E-2,-1.3032159E-1,-1.784692E-1,-8.490301E-2,-4.932322E-2,-3.657099E-2,5.219445E-3,4.3554965E-2,8.9293286E-2,1.335214E-1,1.704722E-1,2.0012738E-1,2.2393923E-1,-3.0922672E-1,-4.3074124E-2,-2.930956E-1,-3.692957E-2,-3.694789E-2,-3.343962E-2,-1.8070593E-2,-1.7432326E-2,-1.7563288E-1,-2.8783515E-2,-8.3538175E-2,-1.7212369E-2,-4.353854E-2,-1.0819898E-2,-5.107664E-3,-3.5167687E-2,5.5039837E-3,-4.5682415E-3,9.448576E-3,4.2666E-2,7.557366E-2,1.0278001E-1,1.6680328E-2,1.4205846E-1,1.581723E-1,1.7701735E-1,1.9254272E-1,2.0463459E-1,2.1659516E-1,2.2856091E-1,-4.2124975E-2,-4.108349E-2,-4.1525394E-2,-3.9351005E-2,-2.3874016E-2,-2.3283456E-2,-1.7203668E-2,-8.322139E-2,-1.0855097E-2,-4.1890085E-2,-4.8804E-3,-4.681458E-3,4.7906335E-3,5.3609894E-3,4.159417E-2,5.9315776E-3,1.3171163E-2,7.465033E-2,1.62726E-2,1.36645995E-2,1.9187575E-2,1.7034777E-2,2.131792E-2,1.9670712E-2,2.3125676E-2,2.4609715E-2,2.5028808E-2,2.6004918E-2,2.7033007E-2,2.797678E-2,2.8765695E-2,2.9485395E-2,3.0165968E-2,2.3077026E-1,-8.736648E-2,-8.224394E-2,-6.117855E-3,-5.4956162E-3,3.969943E-3,7.053649E-3,5.3390963E-3,5.6653786E-3,9.678099E-3,1.0095167E-2,3.0770525E-2,3.1335995E-2,-1.1597882E-2,-9.1908514E-2,-1.1221308E-2,-1.0864833E-2,1.2273535E-3,4.620238E-3,6.94488E-3,2.421894E-2,-1.3063191E-2,-1.1441916E-2,-4.177511E-3,1.8725889E-4,5.35166E-4,6.515361E-4,8.063147E-4,9.79289E-4,6.59719E-4,5.808442E-3],"categories":[],"categories_nodes":[],"categories_segments":[],"categories_sizes":[],"default_left":[0,0,0,0,0,0,0,0,0,0,0,0,0,0,0,0,0,0,0,0,0,0,0,0,0,0,0,0,0,0,0,0,0,0,0,0,0,0,0,0,0,0,0,0,0,0,0,0,0,0,0,0,0,0,0,0,0,0,0,0,0,0,0,0,0,0,0,0,0,0,0,0,0,0,0,0,0,0,0,0,0,0,0,0,0,0,0,0,0,0,0,0,0,0,0,0,0,0,0,0,0,0,0,0,0,0,0,0,0,0,0,0,0,0,0,0,0,0,0,0,0,0,0,0,0],"id":4,"left_children":[1,3,5,7,9,11,13,15,17,19,21,23,25,27,29,31,33,35,-1,37,39,41,43,45,47,49,51,53,55,57,59,61,-1,63,-1,-1,-1,-1,-1,65,-1,67,-1,69,-1,-1,71,73,-1,-1,75,77,79,-1,81,83,85,87,89,91,93,-1,-1,-1,-1,-1,-1,-1,95,-1,97,-1,-1,-1,99,101,-1,-1,103,-1,-1,-1,-1,-1,-1,-1,-1,-1,-1,-1,-1,-1,-1,-1,105,107,109,-1,-1,111,113,-1,-1,-1,-1,-1,-1,-1,115,-1,-1,117,119,121,123,-1,-1,-1,-1,-1,-1,-1,-1,-1,-1],"loss_changes":[9.749563E3,5.188628E2,7.781411E2,6.798926E1,3.718808E1,8.600135E1,9.7625E1,1.1775391E1,4.824829E0,1.0899536E1,1.1128998E0,7.7777233E0,1.31536255E1,1.4667603E1,9.901123E0,9.782715E-1,1.5679932E0,2.3254395E-2,0E0,1.0238647E-2,9.7720337E-1,5.42099E-1,1.7193055E-1,1.5051842E-2,1.0502419E-1,2.20541E-1,3.4841766E0,1.4376526E0,2.1637573E0,9.289551E-1,1.5148926E0,1.7675781E-1,0E0,1.3183594E-2,0E0,0E0,0E0,0E0,0E0,1.260376E-2,0E0,1.17515564E-1,0E0,4.7101974E-2,0E0,0E0,5.030632E-4,4.0003568E-2,0E0,0E0,1.1947632E-2,1.8533707E-1,2.0284271E-1,0E0,5.6518555E-2,2.7160645E-3,5.065918E-1,1.1566162E-2,1.7523193E-1,8.001709E-2,2.241211E-1,0E0,0E0,0E0,0E0,0E0,0E0,0E0,2.9575348E-2,0E0,1.1267662E-3,0E0,0E0,0E0,2.1864772E-2,3.3493042E-3,0E0,0E0,3.479004E-3,0E0,0E0,0E0,0E0,0E0,0E0,0E0,0E0,0E0,0E0,0E0,0E0,0E0,0E0,0E0,2.9785156E-2,1.3484955E-3,5.908966E-3,0E0,0E0,9.1008395E-3,7.660374E-3,0E0,0E0,0E0,0E0,0E0,0E0,0E0,3.8628578E-3,0E0,0E0,5.2308124E-3,5.676672E-4,1.2744814E-3,9.30085E-3,0E0,0E0,0E0,0E0,0E0,0E0,0E0,0E0,0E0,0E0],"parents":[2147483647,0,0,1,1,2,2,3,3,4,4,5,5,6,6,7,7,8,8,9,9,10,10,11,11,12,12,13,13,14,14,15,15,16,16,17,17,19,19,20,20,21,21,22,22,23,23,24,24,25,25,26,26,27,27,28,28,29,29,30,30,31,31,33,33,39,39,41,41,43,43,46,46,47,47,50,50,51,51,52,52,54,54,55,55,56,56,57,57,58,58,59,59,60,60,68,68,70,70,74,74,75,75,78,78,94,94,95,95,96,96,99,99,100,100,108,108,111,111,112,112,113,113,114,114],"right_children":[2,4,6,8,10,12,14,16,18,20,22,24,26,28,30,32,34,36,-1,38,40,42,44,46,48,50,52,54,56,58,60,62,-1,64,-1,-1,-1,-1,-1,66,-1,68,-1,70,-1,-1,72,74,-1,-1,76,78,80,-1,82,84,86,88,90,92,94,-1,-1,-1,-1,-1,-1,-1,96,-1,98,-1,-1,-1,100,102,-1,-1,104,-1,-1,-1,-1,-1,-1,-1,-1,-1,-1,-1,-1,-1,-1,-1,106,108,110,-1,-1,112,114,-1,-1,-1,-1,-1,-1,-1,116,-1,-1,118,120,122,124,-1,-1,-1,-1,-1,-1,-1,-1,-1,-1],"split_conditions":[4.4352803E-1,4.977439E-2,7.469496E-1,4.678612E-2,1.180517E-1,5.818555E-1,8.785228E-1,1.9000199E-2,4.4525173E-2,5.134322E-1,1.6627184E-1,3.5846245E-1,6.468674E-1,7.974664E-1,8.436207E-1,6.7547016E-2,8.925809E-3,2.1047918E-1,-2.9032E-2,2.8850976E-1,6.018001E-1,4.6425503E-1,4.0659654E-1,4.4870925E-1,3.5563624E-1,2.599157E-1,7.004363E-1,7.573738E-1,8.38473E-1,9.0901726E-1,9.577307E-1,8.5249525E-1,-4.3074124E-2,1.9793484E-2,-3.692957E-2,-3.694789E-2,-3.343962E-2,-1.8070593E-2,-1.7432326E-2,2.1957384E-1,-2.8783515E-2,2.9589772E-1,-1.7212369E-2,3.752824E-1,-1.0819898E-2,-5.107664E-3,3.5780963E-1,2.8850633E-1,-4.5682415E-3,9.448576E-3,5.9504896E-1,2.2633718E-1,1.9644731E-1,1.6680328E-2,1.8353139E-1,1.5924753E-1,8.6693084E-1,8.891684E-1,9.1905373E-1,9.4483435E-1,9.685909E-1,-4.2124975E-2,-4.108349E-2,-4.1525394E-2,-3.9351005E-2,-2.3874016E-2,-2.3283456E-2,-1.7203668E-2,3.674563E-1,-1.0855097E-2,3.321192E-1,-4.8804E-3,-4.681458E-3,4.7906335E-3,5.247866E-1,5.9046245E-1,5.9315776E-3,1.3171163E-2,6.524726E-1,1.62726E-2,1.36645995E-2,1.9187575E-2,1.7034777E-2,2.131792E-2,1.9670712E-2,2.3125676E-2,2.4609715E-2,2.5028808E-2,2.6004918E-2,2.7033007E-2,2.797678E-2,2.8765695E-2,2.9485395E-2,3.0165968E-2,9.7816384E-1,4.276088E-1,3.728262E-1,-6.117855E-3,-5.4956162E-3,5.2026767E-1,3.5901126E-1,5.3390963E-3,5.6653786E-3,9.678099E-3,1.0095167E-2,3.0770525E-2,3.1335995E-2,-1.1597882E-2,3.6316198E-1,-1.1221308E-2,-1.0864833E-2,4.5536223E-1,5.246269E-1,5.312971E-1,4.3247643E-1,-1.3063191E-2,-1.1441916E-2,-4.177511E-3,1.8725889E-4,5.35166E-4,6.515361E-4,8.063147E-4,9.79289E-4,6.59719E-4,5.808442E-3],"split_indices":[2,0,2,1,0,2,2,1,0,5,0,1,2,2,0,4,0,4,0,2,5,5,5,2,5,5,2,2,2,2,2,5,0,4,0,0,0,0,0,2,0,2,0,2,0,0,1,5,0,0,2,5,5,0,5,5,2,2,2,2,2,0,0,0,0,0,0,0,2,0,4,0,0,0,2,2,0,0,2,0,0,0,0,0,0,0,0,0,0,0,0,0,0,0,2,5,2,0,0,2,4,0,0,0,0,0,0,0,2,0,0,2,2,2,1,0,0,0,0,0,0,0,0,0,0],"split_type":[0,0,0,0,0,0,0,0,0,0,0,0,0,0,0,0,0,0,0,0,0,0,0,0,0,0,0,0,0,0,0,0,0,0,0,0,0,0,0,0,0,0,0,0,0,0,0,0,0,0,0,0,0,0,0,0,0,0,0,0,0,0,0,0,0,0,0,0,0,0,0,0,0,0,0,0,0,0,0,0,0,0,0,0,0,0,0,0,0,0,0,0,0,0,0,0,0,0,0,0,0,0,0,0,0,0,0,0,0,0,0,0,0,0,0,0,0,0,0,0,0,0,0,0,0],"sum_hessian":[2.68362E5,1.02765E5,1.65597E5,7.3437E4,2.9328E4,4.6168E4,1.19429E5,5.5597E4,1.784E4,1.8933E4,1.0395E4,1.7863E4,2.8305E4,4.5016E4,7.4413E4,3.6731E4,1.8866E4,9.43E3,8.41E3,8.828E3,1.0105E4,9.42E3,9.75E2,8.456E3,9.407E3,9.434E3,1.8871E4,1.7792E4,2.7224E4,2.8324E4,4.6089E4,1.8199E4,1.8532E4,9.513E3,9.353E3,1.26E2,9.304E3,1.448E3,7.38E3,9.361E3,7.44E2,9.133E3,2.87E2,8.24E2,1.51E2,4.249E3,4.207E3,9.34E3,6.7E1,3.02E2,9.132E3,9.358E3,9.513E3,8.391E3,9.401E3,9.464E3,1.776E4,1.0574E4,1.775E4,1.782E4,2.8269E4,9.276E3,8.923E3,3.95E2,9.118E3,5.567E3,3.794E3,6.2E1,9.071E3,3.3E1,7.91E2,1.065E3,3.142E3,4.3E1,9.297E3,5.202E3,3.93E3,3.68E2,8.99E3,6.06E2,8.907E3,9.092E3,3.09E2,9.276E3,1.88E2,9.425E3,8.335E3,1.022E3,9.552E3,8.238E3,9.512E3,8.345E3,9.475E3,9.46E3,1.8809E4,1.714E3,7.357E3,1.71E2,6.2E2,5.105E3,4.192E3,1.093E3,4.109E3,1.069E3,7.921E3,9.311E3,9.498E3,1.374E3,3.4E2,4.175E3,3.182E3,9.79E2,4.126E3,4.167E3,2.5E1,1.87E2,1.53E2,4E0,9.75E2,1.059E3,3.067E3,1.08E3,3.087E3,1.3E1,1.2E1],"tree_param":{"num_deleted":"0","num_feature":"8","num_nodes":"125","size_leaf_vector":"1"}},{"base_weights":[-1.3682518E-4,1.2980382E-1,-2.0961161E-1,1.6673219E-1,3.4383934E-2,-1.12132125E-1,-2.4833609E-1,1.8595915E-1,1.3500273E-1,6.408398E-2,-1.2578478E-2,-1.3509603E-1,-7.069017E-2,-2.6331472E-1,-2.0181262E-1,1.9480713E-1,1.7461655E-1,1.4761342E-1,1.1560415E-1,7.724134E-2,3.768279E-2,-3.1650767E-2,4.4919983E-3,-1.12825476E-1,-1.5441267E-1,-7.347633E-2,-4.3020047E-2,-2.7200714E-1,-2.4489091E-1,-2.5122672E-2,-2.1539973E-1,1.995176E-1,1.9053924E-1,1.7940484E-1,1.6793844E-1,1.5368685E-1,1.3774776E-1,1.2302129E-1,1.4438057E-2,8.8964544E-2,6.560642E-2,8.172844E-3,3.6925424E-2,-3.040628E-2,-3.2864507E-2,4.7743893E-3,-3.9676987E-3,-1.4895124E-2,-1.5346936E-2,-1.5188947E-1,-2.49266E-2,-7.209866E-2,-1.4863299E-2,-3.7920885E-2,-9.381624E-3,-2.7493605E-1,-2.6365295E-1,-3.1891428E-2,-3.400007E-2,-3.203587E-2,-2.8942414E-2,2.727936E-2,2.6654823E-2,2.6052214E-2,2.5330538E-2,2.4566466E-2,2.372541E-2,2.3103496E-2,2.2286626E-2,2.1287054E-2,2.0039074E-2,1.9267213E-2,1.3639867E-1,1.479534E-2,1.2337498E-1,1.4064281E-2,8.7929495E-2,1.1289252E-2,6.458182E-2,5.1337276E-3,3.602475E-2,-4.0505272E-3,-4.213633E-3,-4.375368E-3,-4.557649E-3,4.0869946E-3,4.622745E-3,-2.0151887E-2,-2.0638498E-2,-7.118984E-2,-7.596835E-2,-3.629803E-2,-9.499021E-3,-3.6721185E-2,-3.756601E-2,-3.557605E-2,-3.396053E-2,1.8434385E-2,1.782324E-2,1.6655132E-2,1.6000606E-2,1.1961597E-2,1.1688405E-2,8.839399E-3,8.584641E-3,4.903333E-3,4.631182E-3,6.0563255E-3,3.4644697E-3,-9.711468E-3,-9.402391E-3,-1.01756025E-2,-1.4746348E-2,-4.747216E-3,-5.321888E-3,1.2970021E-2,6.0114E-3,3.9742887E-3,1.0824405E-3,5.3996136E-3,6.184012E-4,7.0592284E-4,8.4308494E-4,5.6447467E-4,4.5136412E-4,1.6880444E-4,-4.0739793E-3],"categories":[],"categories_nodes":[],"categories_segments":[],"categories_sizes":[],"default_left":[0,0,0,0,0,0,0,0,0,0,0,0,0,0,0,0,0,0,0,0,0,0,0,0,0,0,0,0,0,0,0,0,0,0,0,0,0,0,0,0,0,0,0,0,0,0,0,0,0,0,0,0,0,0,0,0,0,0,0,0,0,0,0,0,0,0,0,0,0,0,0,0,0,0,0,0,0,0,0,0,0,0,0,0,0,0,0,0,0,0,0,0,0,0,0,0,0,0,0,0,0,0,0,0,0,0,0,0,0,0,0,0,0,0,0,0,0,0,0,0,0,0,0,0,0,0,0],"id":5,"left_children":[1,3,5,7,9,11,13,15,17,19,21,23,25,27,29,31,33,35,37,39,41,43,45,47,49,51,53,55,57,-1,59,61,63,65,67,69,71,73,-1,75,77,-1,79,81,83,85,-1,-1,-1,87,-1,89,-1,91,-1,93,95,-1,-1,-1,-1,-1,-1,-1,-1,-1,-1,-1,-1,-1,-1,-1,97,-1,99,-1,101,-1,103,-1,105,-1,-1,-1,-1,-1,107,-1,-1,109,111,113,-1,-1,-1,-1,-1,-1,-1,-1,-1,-1,-1,-1,-1,-1,-1,115,117,-1,-1,-1,-1,-1,-1,119,121,123,125,-1,-1,-1,-1,-1,-1,-1,-1],"loss_changes":[7.3014385E3,5.8334644E2,3.87625E2,7.279053E1,6.443154E1,2.7778229E1,5.1163574E1,7.4245605E0,1.1001038E1,9.826965E0,5.8269224E0,8.064606E0,7.9961014E-1,8.836426E0,3.6433105E0,8.0114746E-1,1.0115967E0,1.6141357E0,1.0826416E0,2.5700455E0,1.6206074E-1,1.1769295E-2,9.075411E-2,1.0047913E-2,7.535553E-1,4.7372055E-1,1.2732339E-1,8.515625E-1,1.0343018E0,0E0,2.2888184E-2,5.1940918E-2,1.1828613E-1,1.5289307E-1,9.04541E-2,3.3898926E-1,5.6503296E-2,2.9846191E-2,0E0,1.4206696E-1,1.7214966E-1,0E0,8.644104E-3,2.2697449E-4,4.0960312E-4,3.621784E-2,0E0,0E0,0E0,6.3323975E-3,0E0,2.6676178E-2,0E0,4.0052414E-2,0E0,1.6796875E-1,1.0009766E-2,0E0,0E0,0E0,0E0,0E0,0E0,0E0,0E0,0E0,0E0,0E0,0E0,0E0,0E0,0E0,9.1552734E-4,0E0,8.087158E-4,0E0,1.3275146E-3,0E0,3.6468506E-3,0E0,2.2177696E-3,0E0,0E0,0E0,0E0,0E0,1.5444726E-2,0E0,0E0,4.4822693E-3,1.2515068E-2,1.1587143E-3,0E0,0E0,0E0,0E0,0E0,0E0,0E0,0E0,0E0,0E0,0E0,0E0,0E0,0E0,0E0,1.2144446E-3,6.2547475E-3,0E0,0E0,0E0,0E0,0E0,0E0,5.7278466E-3,7.689297E-4,5.6530535E-4,4.9408227E-3,0E0,0E0,0E0,0E0,0E0,0E0,0E0,0E0],"parents":[2147483647,0,0,1,1,2,2,3,3,4,4,5,5,6,6,7,7,8,8,9,9,10,10,11,11,12,12,13,13,14,14,15,15,16,16,17,17,18,18,19,19,20,20,21,21,22,22,23,23,24,24,25,25,26,26,27,27,28,28,30,30,31,31,32,32,33,33,34,34,35,35,36,36,37,37,39,39,40,40,42,42,43,43,44,44,45,45,49,49,51,51,53,53,55,55,56,56,72,72,74,74,76,76,78,78,80,80,86,86,89,89,90,90,91,91,107,107,108,108,115,115,116,116,117,117,118,118],"right_children":[2,4,6,8,10,12,14,16,18,20,22,24,26,28,30,32,34,36,38,40,42,44,46,48,50,52,54,56,58,-1,60,62,64,66,68,70,72,74,-1,76,78,-1,80,82,84,86,-1,-1,-1,88,-1,90,-1,92,-1,94,96,-1,-1,-1,-1,-1,-1,-1,-1,-1,-1,-1,-1,-1,-1,-1,98,-1,100,-1,102,-1,104,-1,106,-1,-1,-1,-1,-1,108,-1,-1,110,112,114,-1,-1,-1,-1,-1,-1,-1,-1,-1,-1,-1,-1,-1,-1,-1,116,118,-1,-1,-1,-1,-1,-1,120,122,124,126,-1,-1,-1,-1,-1,-1,-1,-1],"split_conditions":[4.9820155E-1,2.0962359E-1,8.089901E-1,9.705819E-2,3.5998732E-1,2.146627E-1,4.678612E-2,4.476297E-2,1.6738194E-1,3.0000347E-1,3.5846245E-1,5.134322E-1,1.6627184E-1,8.2889125E-3,8.186082E-1,2.485938E-2,7.011803E-2,1.21912815E-1,2.0222251E-1,2.504797E-1,2.599157E-1,4.939411E-1,3.5563624E-1,6.585704E-1,6.018001E-1,4.6425503E-1,4.0659654E-1,8.5249525E-1,8.6898553E-1,-2.5122672E-2,2.1047918E-1,1.42253125E-2,3.396405E-2,5.647274E-2,8.2150236E-2,1.1416776E-1,1.4285535E-1,5.196723E-1,1.4438057E-2,1.9644731E-1,2.2633718E-1,8.172844E-3,3.508942E-1,4.890605E-1,4.945462E-1,2.8850633E-1,-3.9676987E-3,-1.4895124E-2,-1.5346936E-2,7.3978055E-1,-2.49266E-2,5.7750195E-1,-1.4863299E-2,5.7093316E-1,-9.381624E-3,1E0,1.9793484E-2,-3.1891428E-2,-3.400007E-2,-3.203587E-2,-2.8942414E-2,2.727936E-2,2.6654823E-2,2.6052214E-2,2.5330538E-2,2.4566466E-2,2.372541E-2,2.3103496E-2,2.2286626E-2,2.1287054E-2,2.0039074E-2,1.9267213E-2,1.4616017E-1,1.479534E-2,1.7530063E-1,1.4064281E-2,2.4659196E-1,1.1289252E-2,2.9310945E-1,5.1337276E-3,3.5404715E-1,-4.0505272E-3,-4.213633E-3,-4.375368E-3,-4.557649E-3,4.0869946E-3,4.18377E-1,-2.0151887E-2,-2.0638498E-2,2.816424E-1,6.554424E-1,3.755582E-1,-9.499021E-3,-3.6721185E-2,-3.756601E-2,-3.557605E-2,-3.396053E-2,1.8434385E-2,1.782324E-2,1.6655132E-2,1.6000606E-2,1.1961597E-2,1.1688405E-2,8.839399E-3,8.584641E-3,4.903333E-3,4.631182E-3,3.0888507E-1,4.2183644E-1,-9.711468E-3,-9.402391E-3,-1.01756025E-2,-1.4746348E-2,-4.747216E-3,-5.321888E-3,4.1411796E-1,4.3247643E-1,4.1854924E-1,4.8894882E-1,5.3996136E-3,6.184012E-4,7.0592284E-4,8.4308494E-4,5.6447467E-4,4.5136412E-4,1.6880444E-4,-4.0739793E-3],"split_indices":[3,3,3,3,3,1,1,3,3,3,1,5,0,0,3,3,3,3,3,3,5,3,5,3,5,5,5,5,5,0,4,3,3,3,3,5,3,0,0,5,5,0,3,3,3,5,0,0,0,3,0,3,0,3,0,3,4,0,0,0,0,0,0,0,0,0,0,0,0,0,0,0,3,0,3,0,3,0,3,0,3,0,0,0,0,0,3,0,0,1,3,5,0,0,0,0,0,0,0,0,0,0,0,0,0,0,0,5,3,0,0,0,0,0,0,3,1,3,3,0,0,0,0,0,0,0,0],"split_type":[0,0,0,0,0,0,0,0,0,0,0,0,0,0,0,0,0,0,0,0,0,0,0,0,0,0,0,0,0,0,0,0,0,0,0,0,0,0,0,0,0,0,0,0,0,0,0,0,0,0,0,0,0,0,0,0,0,0,0,0,0,0,0,0,0,0,0,0,0,0,0,0,0,0,0,0,0,0,0,0,0,0,0,0,0,0,0,0,0,0,0,0,0,0,0,0,0,0,0,0,0,0,0,0,0,0,0,0,0,0,0,0,0,0,0,0,0,0,0,0,0,0,0,0,0,0,0],"sum_hessian":[2.68243E5,1.6555E5,1.02693E5,1.19357E5,4.6193E4,2.9198E4,7.3495E4,7.4318E4,4.5039E4,2.8297E4,1.7896E4,1.8786E4,1.0412E4,5.5592E4,1.7903E4,4.1741E4,3.2577E4,2.7291E4,1.7748E4,1.8884E4,9.413E3,8.452E3,9.444E3,8.729E3,1.0057E4,9.458E3,9.54E2,3.7762E4,1.783E4,8.474E3,9.429E3,1.982E4,2.1921E4,1.8958E4,1.3619E4,1.6883E4,1.0408E4,9.378E3,8.37E3,9.403E3,9.481E3,2.97E2,9.116E3,4.186E3,4.266E3,9.367E3,7.7E1,3.174E3,5.555E3,9.301E3,7.56E2,9.121E3,3.37E2,8.03E2,1.51E2,2.7936E4,9.826E3,8.826E3,9.004E3,1.32E2,9.297E3,6.203E3,1.3617E4,9.465E3,1.2456E4,9.425E3,9.533E3,5.224E3,8.395E3,8.703E3,8.18E3,2.055E3,8.353E3,2.55E2,9.123E3,5.81E2,8.822E3,4.99E2,8.982E3,3.854E3,5.262E3,3.143E3,1.043E3,3.176E3,1.09E3,5.4E1,9.313E3,3.803E3,5.498E3,7.402E3,1.719E3,7.67E2,3.6E1,1.8705E4,9.231E3,9.24E3,5.86E2,7.265E3,1.088E3,8.388E3,7.35E2,4.652E3,4.17E3,3.737E3,5.245E3,4.181E3,1.081E3,4.16E3,5.153E3,4.245E3,3.157E3,1.704E3,1.5E1,5.92E2,1.75E2,2.5E1,4.135E3,4.244E3,9.09E2,5E0,2E1,1.032E3,3.103E3,3.129E3,1.115E3,9.05E2,4E0],"tree_param":{"num_deleted":"0","num_feature":"8","num_nodes":"127","size_leaf_vector":"1"}},{"base_weights":[-1.4318947E-6,1.1237797E-1,-1.813901E-1,1.4431074E-1,2.9729761E-2,-2.141235E-1,-9.486859E-2,1.6128823E-1,1.1726781E-1,5.544519E-2,-1.0870075E-2,-2.2784834E-1,-1.7358342E-1,-1.1463772E-1,-6.1195888E-2,1.6860223E-1,1.515052E-1,1.2808369E-1,1.00045264E-1,6.686679E-2,3.2564584E-2,3.9061997E-3,-2.7401023E-2,-2.3539391E-1,-2.1189827E-1,-1.8656948E-1,-1.6100071E-1,-9.7663224E-2,-1.7656397E-2,-6.365757E-2,-3.689675E-2,1.7215428E-1,1.6427104E-1,1.5652229E-1,1.4709137E-1,1.3290448E-1,1.1846067E-1,1.0646006E-1,1.2495139E-2,7.698778E-2,5.679116E-2,7.0784576E-3,3.1936217E-2,4.13835E-3,-3.3401842E-3,-2.6327282E-2,-2.8453704E-2,-2.3109156E-1,-3.2276466E-2,-2.9482774E-2,-2.7651248E-2,-2.772728E-2,-2.5069367E-2,-1.6164921E-1,-1.8923372E-2,-1.3053051E-2,-1.3579772E-2,-6.240506E-2,-1.2872151E-2,-3.2701075E-2,-8.116918E-3,2.344254E-2,2.28909E-2,2.236429E-2,2.1784047E-2,2.1379048E-2,2.0830156E-2,2.019729E-2,1.9428091E-2,1.367501E-1,1.7239135E-2,1.6008994E-2,1.5431045E-2,1.2803093E-2,1.0676534E-1,1.2168697E-2,7.6111585E-2,9.7677875E-3,5.589081E-2,3.243551E-2,4.075235E-3,3.5654248E-3,3.986881E-3,-3.5069585E-3,-3.6483197E-3,-3.786787E-3,-3.9470564E-3,-3.151499E-2,-2.2816068E-1,-2.4829913E-2,-2.173184E-2,-6.19214E-2,-6.868286E-2,-3.134385E-2,-8.251594E-3,1.8584467E-2,1.8224003E-2,1.4412751E-2,1.3852613E-2,1.0386726E-2,1.0142667E-2,7.5657493E-3,7.1949293E-3,4.469545E-3,4.292421E-3,5.2584885E-3,2.9665648E-3,-3.0788062E-2,-2.939982E-2,-8.174015E-3,-8.48354E-3,-8.4496215E-2,-8.938218E-3,-4.1140723E-3,-4.5400695E-3,1.2655545E-2,5.201555E-3,-3.5070234E-3,3.00529E-3,-1.1893099E-2,-7.162414E-3,4.8895436E-3,5.7014386E-4,4.926923E-4,7.147996E-4,4.627976E-4,1.3339153E-4],"categories":[],"categories_nodes":[],"categories_segments":[],"categories_sizes":[],"default_left":[0,0,0,0,0,0,0,0,0,0,0,0,0,0,0,0,0,0,0,0,0,0,0,0,0,0,0,0,0,0,0,0,0,0,0,0,0,0,0,0,0,0,0,0,0,0,0,0,0,0,0,0,0,0,0,0,0,0,0,0,0,0,0,0,0,0,0,0,0,0,0,0,0,0,0,0,0,0,0,0,0,0,0,0,0,0,0,0,0,0,0,0,0,0,0,0,0,0,0,0,0,0,0,0,0,0,0,0,0,0,0,0,0,0,0,0,0,0,0,0,0,0,0,0,0,0,0],"id":6,"left_children":[1,3,5,7,9,11,13,15,17,19,21,23,25,27,29,31,33,35,37,39,41,43,45,47,49,51,53,55,-1,57,59,61,63,65,67,69,71,73,-1,75,77,-1,79,81,-1,83,85,87,-1,-1,-1,-1,-1,89,-1,-1,-1,91,-1,93,-1,-1,-1,-1,-1,-1,-1,-1,-1,95,-1,-1,-1,-1,97,-1,99,-1,101,103,-1,-1,105,-1,-1,-1,-1,-1,107,-1,-1,109,111,113,-1,-1,-1,-1,-1,-1,-1,-1,-1,-1,-1,115,117,-1,-1,-1,-1,119,-1,-1,-1,121,123,-1,125,-1,-1,-1,-1,-1,-1,-1,-1],"loss_changes":[5.4732393E3,4.3754102E2,2.9088013E2,5.4884766E1,4.824058E1,4.1424072E1,1.8761826E1,5.230835E0,8.5789795E0,7.3904037E0,4.3768625E0,6.6501465E0,3.050293E0,4.9793243E0,6.216583E-1,6.1828613E-1,6.7315674E-1,1.2984009E0,8.1230164E-1,1.9197083E0,1.169014E-1,6.3200176E-2,8.8095665E-3,6.6503906E-1,7.8082275E-1,1.4862061E-2,1.04003906E-1,9.384155E-3,0E0,3.7347794E-1,9.253609E-2,6.726074E-2,6.0058594E-2,3.527832E-2,1.1477661E-1,3.3154297E-1,4.0740967E-3,2.2377014E-2,0E0,1.038475E-1,1.3039017E-1,0E0,6.570816E-3,3.167817E-2,0E0,1.77145E-4,3.528595E-4,1.1975098E-1,0E0,0E0,0E0,0E0,0E0,7.0343018E-3,0E0,0E0,0E0,2.342987E-2,0E0,2.9842794E-2,0E0,0E0,0E0,0E0,0E0,0E0,0E0,0E0,0E0,7.6293945E-5,0E0,0E0,0E0,0E0,4.348755E-4,0E0,1.2283325E-3,0E0,4.076004E-3,1.8792152E-3,0E0,0E0,1.2083054E-2,0E0,0E0,0E0,0E0,0E0,8.117676E-3,0E0,0E0,7.3661804E-3,1.7455578E-2,4.1902065E-4,0E0,0E0,0E0,0E0,0E0,0E0,0E0,0E0,0E0,0E0,0E0,1.681909E-3,5.8961213E-3,0E0,0E0,0E0,0E0,4.6265125E-3,0E0,0E0,0E0,6.0252696E-3,6.766841E-4,0E0,4.5103207E-3,0E0,0E0,0E0,0E0,0E0,0E0,0E0,0E0],"parents":[2147483647,0,0,1,1,2,2,3,3,4,4,5,5,6,6,7,7,8,8,9,9,10,10,11,11,12,12,13,13,14,14,15,15,16,16,17,17,18,18,19,19,20,20,21,21,22,22,23,23,24,24,25,25,26,26,27,27,29,29,30,30,31,31,32,32,33,33,34,34,35,35,36,36,37,37,39,39,40,40,42,42,43,43,45,45,46,46,47,47,53,53,57,57,59,59,69,69,74,74,76,76,78,78,79,79,82,82,88,88,91,91,92,92,93,93,105,105,106,106,111,111,115,115,116,116,118,118],"right_children":[2,4,6,8,10,12,14,16,18,20,22,24,26,28,30,32,34,36,38,40,42,44,46,48,50,52,54,56,-1,58,60,62,64,66,68,70,72,74,-1,76,78,-1,80,82,-1,84,86,88,-1,-1,-1,-1,-1,90,-1,-1,-1,92,-1,94,-1,-1,-1,-1,-1,-1,-1,-1,-1,96,-1,-1,-1,-1,98,-1,100,-1,102,104,-1,-1,106,-1,-1,-1,-1,-1,108,-1,-1,110,112,114,-1,-1,-1,-1,-1,-1,-1,-1,-1,-1,-1,116,118,-1,-1,-1,-1,120,-1,-1,-1,122,124,-1,126,-1,-1,-1,-1,-1,-1,-1,-1],"split_conditions":[4.9820155E-1,2.0962359E-1,1.4518662E-1,8.65733E-2,3.5998732E-1,4.678612E-2,2.146627E-1,4.476297E-2,1.6738194E-1,3.0000347E-1,4.8894882E-1,8.2889125E-3,2.3913442E-1,5.134322E-1,1.6627184E-1,2.6146026E-2,6.706744E-2,1.2796484E-1,2.0222251E-1,2.504797E-1,2.599157E-1,3.5563624E-1,4.939411E-1,8.136522E-2,8.925809E-3,2.1047918E-1,2.850878E-1,6.6197014E-1,-1.7656397E-2,4.6425503E-1,4.0659654E-1,1.851124E-2,3.7651107E-2,5.5651084E-2,7.90093E-2,1.18411414E-1,1.4616017E-1,5.196723E-1,1.2495139E-2,1.9644731E-1,2.2633718E-1,7.0784576E-3,3.5178527E-1,2.8850633E-1,-3.3401842E-3,4.890605E-1,4.945462E-1,8.5249525E-1,-3.2276466E-2,-2.9482774E-2,-2.7651248E-2,-2.772728E-2,-2.5069367E-2,7.099305E-2,-1.8923372E-2,-1.3053051E-2,-1.3579772E-2,5.812226E-1,-1.2872151E-2,5.7093316E-1,-8.116918E-3,2.344254E-2,2.28909E-2,2.236429E-2,2.1784047E-2,2.1379048E-2,2.0830156E-2,2.019729E-2,1.9428091E-2,1.007279E-1,1.7239135E-2,1.6008994E-2,1.5431045E-2,1.2803093E-2,1.7530063E-1,1.2168697E-2,2.4510323E-1,9.7677875E-3,2.960701E-1,3.4840843E-1,4.075235E-3,3.5654248E-3,4.18377E-1,-3.5069585E-3,-3.6483197E-3,-3.786787E-3,-3.9470564E-3,-3.151499E-2,1.9793484E-2,-2.4829913E-2,-2.173184E-2,5.760706E-1,3.157416E-1,3.755582E-1,-8.251594E-3,1.8584467E-2,1.8224003E-2,1.4412751E-2,1.3852613E-2,1.0386726E-2,1.0142667E-2,7.5657493E-3,7.1949293E-3,4.469545E-3,4.292421E-3,3.0888507E-1,3.5846245E-1,-3.0788062E-2,-2.939982E-2,-8.174015E-3,-8.48354E-3,2.7140176E-1,-8.938218E-3,-4.1140723E-3,-4.5400695E-3,4.1411796E-1,4.245502E-1,-3.5070234E-3,4.2183644E-1,-1.1893099E-2,-7.162414E-3,4.8895436E-3,5.7014386E-4,4.926923E-4,7.147996E-4,4.627976E-4,1.3339153E-4],"split_indices":[3,3,1,3,3,1,1,3,3,3,3,0,4,5,0,3,3,3,3,3,5,5,3,4,0,4,4,3,0,5,5,3,3,3,5,3,3,0,0,5,5,0,3,5,0,3,3,5,0,0,0,0,0,1,0,0,0,3,0,3,0,0,0,0,0,0,0,0,0,3,0,0,0,0,3,0,3,0,3,3,0,0,3,0,0,0,0,0,4,0,0,3,4,5,0,0,0,0,0,0,0,0,0,0,0,5,1,0,0,0,0,1,0,0,0,3,1,0,3,0,0,0,0,0,0,0,0],"split_type":[0,0,0,0,0,0,0,0,0,0,0,0,0,0,0,0,0,0,0,0,0,0,0,0,0,0,0,0,0,0,0,0,0,0,0,0,0,0,0,0,0,0,0,0,0,0,0,0,0,0,0,0,0,0,0,0,0,0,0,0,0,0,0,0,0,0,0,0,0,0,0,0,0,0,0,0,0,0,0,0,0,0,0,0,0,0,0,0,0,0,0,0,0,0,0,0,0,0,0,0,0,0,0,0,0,0,0,0,0,0,0,0,0,0,0,0,0,0,0,0,0,0,0,0,0,0,0],"sum_hessian":[2.685E5,1.65787E5,1.02713E5,1.19583E5,4.6204E4,7.4519E4,2.8194E4,7.346E4,4.6123E4,2.8287E4,1.7917E4,5.5668E4,1.8851E4,1.7763E4,1.0431E4,4.2025E4,3.1435E4,2.8327E4,1.7796E4,1.8867E4,9.42E3,9.461E3,8.456E3,3.7781E4,1.7887E4,9.27E3,9.581E3,8.774E3,8.989E3,9.47E3,9.61E2,2.3068E4,1.8957E4,1.4696E4,1.6739E4,1.8864E4,9.463E3,9.405E3,8.391E3,9.409E3,9.458E3,2.84E2,9.136E3,9.386E3,7.5E1,4.199E3,4.257E3,1.9198E4,1.8583E4,8.448E3,9.439E3,1.28E2,9.142E3,9.279E3,3.02E2,7.288E3,1.486E3,9.116E3,3.54E2,8.17E2,1.44E2,1.1588E4,1.148E4,1.0548E4,8.409E3,6.255E3,8.441E3,7.98E3,8.759E3,1.0469E4,8.395E3,8.352E3,1.111E3,2.55E2,9.15E3,5.7E2,8.839E3,5.06E2,8.952E3,7.005E3,2.131E3,6.2E1,9.324E3,3.148E3,1.051E3,3.15E3,1.107E3,9.328E3,9.87E3,6.2E1,9.217E3,8.474E3,6.42E2,7.82E2,3.5E1,5.183E3,5.286E3,8.407E3,7.43E2,3.603E3,5.236E3,7.875E3,1.077E3,2.856E3,4.149E3,4.149E3,5.175E3,9.269E3,6.01E2,4.133E3,4.341E3,7.6E1,5.66E2,6.01E2,1.81E2,3E1,4.119E3,6E0,5.169E3,6.6E1,1E1,7E0,2.3E1,2.76E2,3.843E3,4.253E3,9.16E2],"tree_param":{"num_deleted":"0","num_feature":"8","num_nodes":"127","size_leaf_vector":"1"}},{"base_weights":[-1.7440562E-4,9.719743E-2,-1.5692033E-1,1.2484779E-1,2.5767118E-2,-1.8530057E-1,-8.21812E-2,1.390307E-1,1.0056774E-1,4.7932845E-2,-9.448572E-3,-1.9718514E-1,-1.5027271E-1,-9.920938E-2,-5.3030826E-2,1.4501575E-1,1.2906504E-1,8.660686E-2,1.1011706E-1,5.7818417E-2,2.8208805E-2,3.3968121E-3,-2.3724658E-2,-1.8340914E-1,-2.0370847E-1,-1.6145946E-1,-1.3934961E-1,-8.452124E-2,-1.1353596E-1,-5.5159155E-2,-3.220147E-2,1.4820194E-1,1.402177E-1,1.3210338E-1,1.2390251E-1,9.21466E-2,1.0812625E-2,1.0251319E-1,1.1439374E-1,4.9034968E-2,6.655959E-2,6.1299815E-3,2.7640857E-2,3.5932823E-3,-2.8828003E-3,-2.2790354E-2,-2.4619415E-2,-2.3879847E-2,-1.8928964E-1,-1.9998679E-1,-2.0754966E-1,-2.4060333E-2,-2.1694137E-2,-1.3989958E-1,-1.2145728E-1,-8.549929E-2,-1.1129432E-2,-1.54325785E-2,-1.5065068E-2,-5.40033E-2,-1.1128751E-2,-3.6147041E-3,-6.9865207E-3,1.5021794E-1,1.9607952E-2,1.9125137E-2,1.8615553E-2,1.8099155E-2,1.7492507E-2,1.6799532E-2,1.6169583E-2,1.243489E-2,1.109588E-2,1.3852078E-2,1.3367016E-2,1.586741E-2,1.4919412E-2,8.565076E-3,4.8394542E-2,1.0531773E-2,6.578505E-2,3.8459054E-3,2.6949024E-2,3.0744246E-3,3.4620354E-3,-3.0347852E-3,-3.1594434E-3,-3.2773402E-3,-3.413569E-3,-2.5498303E-2,-2.2571359E-2,-2.7273847E-2,-1.974442E-1,-2.769755E-2,-2.816743E-2,-2.1550586E-2,-1.397417E-1,-1.9027764E-2,-1.590852E-2,-1.14568565E-2,-1.2099977E-2,-5.361313E-2,-5.9216537E-2,2.0507481E-2,2.0068636E-2,6.613414E-3,6.3977228E-3,8.897613E-3,8.543042E-3,3.6727572E-3,3.4572287E-3,4.547179E-3,2.5831624E-3,-2.6645208E-2,-2.5401102E-2,-1.8571435E-2,-1.8979998E-2,-7.043965E-3,-7.3167128E-3,-7.336209E-2,-5.7440467E-2,1.1285927E-2,4.4936705E-3,-3.2175495E-3,2.6240817E-3,-7.683661E-2,-6.22057E-3,-1.1207769E-2,-7.6725073E-3,4.8677184E-4,4.5544077E-3,6.340133E-4,5.203236E-4,1.4135428E-4,4.024867E-4,-1.0420012E-2,-2.9550532E-3],"categories":[],"categories_nodes":[],"categories_segments":[],"categories_sizes":[],"default_left":[0,0,0,0,0,0,0,0,0,0,0,0,0,0,0,0,0,0,0,0,0,0,0,0,0,0,0,0,0,0,0,0,0,0,0,0,0,0,0,0,0,0,0,0,0,0,0,0,0,0,0,0,0,0,0,0,0,0,0,0,0,0,0,0,0,0,0,0,0,0,0,0,0,0,0,0,0,0,0,0,0,0,0,0,0,0,0,0,0,0,0,0,0,0,0,0,0,0,0,0,0,0,0,0,0,0,0,0,0,0,0,0,0,0,0,0,0,0,0,0,0,0,0,0,0,0,0,0,0,0,0,0,0,0,0,0,0],"id":7,"left_children":[1,3,5,7,9,11,13,15,17,19,21,23,25,27,29,31,33,35,37,39,41,43,45,47,49,51,53,55,57,59,61,63,65,67,69,71,-1,73,75,77,79,-1,81,83,-1,85,87,-1,89,91,93,-1,-1,95,97,99,-1,-1,-1,101,-1,-1,-1,103,-1,-1,-1,-1,-1,-1,-1,-1,-1,-1,-1,-1,-1,-1,105,-1,107,-1,109,-1,111,-1,-1,-1,-1,-1,-1,-1,113,-1,-1,-1,115,-1,-1,-1,-1,117,119,-1,-1,-1,-1,-1,-1,-1,-1,121,123,-1,-1,-1,-1,-1,-1,125,127,129,131,-1,133,135,-1,-1,-1,-1,-1,-1,-1,-1,-1,-1,-1],"loss_changes":[4.0996206E3,3.2723096E2,2.1829639E2,4.1118286E1,3.6092983E1,3.1023926E1,1.4056122E1,4.4783936E0,5.862793E0,5.53141E0,3.2756464E0,4.9677734E0,2.2872314E0,3.753128E0,4.61401E-1,6.9921875E-1,4.275818E-1,6.137085E-1,8.387451E-1,1.4479866E0,9.2059135E-2,4.5924246E-2,6.5112114E-3,5.9539795E-1,4.9865723E-1,1.3839722E-2,7.7178955E-2,8.693695E-3,3.5476685E-3,2.9714966E-1,1.0086501E-1,1.2109375E-1,4.7790527E-2,7.2631836E-2,2.1453857E-2,1.5327454E-2,0E0,2.1896362E-3,1.9444275E-1,8.515167E-2,8.0646515E-2,0E0,5.170822E-3,2.3494177E-2,0E0,1.5592575E-4,2.4104118E-4,0E0,1.6784668E-3,9.04541E-2,1.3549805E-2,0E0,0E0,7.2631836E-3,2.2687912E-3,1.6937256E-3,0E0,0E0,0E0,1.5333176E-2,0E0,0E0,0E0,1.449585E-2,0E0,0E0,0E0,0E0,0E0,0E0,0E0,0E0,0E0,0E0,0E0,0E0,0E0,0E0,3.440857E-3,0E0,2.5177002E-3,0E0,1.573801E-3,0E0,8.827172E-3,0E0,0E0,0E0,0E0,0E0,0E0,0E0,9.002686E-3,0E0,0E0,0E0,1.2664795E-3,0E0,0E0,0E0,0E0,5.2814484E-3,1.1462927E-2,0E0,0E0,0E0,0E0,0E0,0E0,0E0,0E0,1.4442503E-3,5.6159683E-3,0E0,0E0,0E0,0E0,0E0,0E0,2.6724637E-3,1.4762878E-3,5.4128002E-3,5.428195E-4,0E0,2.9480308E-3,1.3899803E-4,0E0,0E0,0E0,0E0,0E0,0E0,0E0,0E0,0E0,0E0,0E0],"parents":[2147483647,0,0,1,1,2,2,3,3,4,4,5,5,6,6,7,7,8,8,9,9,10,10,11,11,12,12,13,13,14,14,15,15,16,16,17,17,18,18,19,19,20,20,21,21,22,22,23,23,24,24,25,25,26,26,27,27,28,28,29,29,30,30,31,31,32,32,33,33,34,34,35,35,37,37,38,38,39,39,40,40,42,42,43,43,45,45,46,46,48,48,49,49,50,50,53,53,54,54,55,55,59,59,63,63,78,78,80,80,82,82,84,84,92,92,96,96,101,101,102,102,111,111,112,112,119,119,120,120,121,121,122,122,124,124,125,125],"right_children":[2,4,6,8,10,12,14,16,18,20,22,24,26,28,30,32,34,36,38,40,42,44,46,48,50,52,54,56,58,60,62,64,66,68,70,72,-1,74,76,78,80,-1,82,84,-1,86,88,-1,90,92,94,-1,-1,96,98,100,-1,-1,-1,102,-1,-1,-1,104,-1,-1,-1,-1,-1,-1,-1,-1,-1,-1,-1,-1,-1,-1,106,-1,108,-1,110,-1,112,-1,-1,-1,-1,-1,-1,-1,114,-1,-1,-1,116,-1,-1,-1,-1,118,120,-1,-1,-1,-1,-1,-1,-1,-1,122,124,-1,-1,-1,-1,-1,-1,126,128,130,132,-1,134,136,-1,-1,-1,-1,-1,-1,-1,-1,-1,-1,-1],"split_conditions":[4.9820155E-1,2.0962359E-1,1.4518662E-1,1.0043588E-1,3.5998732E-1,4.678612E-2,2.9589772E-1,5.3274926E-2,7.974664E-1,3.0000347E-1,4.8894882E-1,9.495512E-1,2.3913442E-1,5.134322E-1,3.7530178E-1,3.1139882E-2,7.8603305E-2,2.0222251E-1,7.71011E-1,7.004363E-1,2.599157E-1,3.5563624E-1,4.939411E-1,8.6898553E-1,1.509234E-1,2.1047918E-1,2.850878E-1,2.114733E-1,1.512058E-1,4.6425503E-1,4.0659654E-1,2.18142E-2,4.165649E-2,6.246916E-2,8.65733E-2,1.8353139E-1,1.0812625E-2,1.4616017E-1,1.18411414E-1,2.2633718E-1,1.9644731E-1,6.1299815E-3,3.508942E-1,2.8850633E-1,-2.8828003E-3,4.890605E-1,4.945462E-1,-2.3879847E-2,7.115478E-2,8.5249525E-1,1E0,-2.4060333E-2,-2.1694137E-2,1.1089282E-1,1.0633006E-1,6.6565514E-1,-1.1129432E-2,-1.54325785E-2,-1.5065068E-2,5.812226E-1,-1.1128751E-2,-3.6147041E-3,-6.9865207E-3,1.1892445E-2,1.9607952E-2,1.9125137E-2,1.8615553E-2,1.8099155E-2,1.7492507E-2,1.6799532E-2,1.6169583E-2,1.243489E-2,1.109588E-2,1.3852078E-2,1.3367016E-2,1.586741E-2,1.4919412E-2,8.565076E-3,2.9471228E-1,1.0531773E-2,2.473274E-1,3.8459054E-3,3.5404715E-1,3.0744246E-3,4.18377E-1,-3.0347852E-3,-3.1594434E-3,-3.2773402E-3,-3.413569E-3,-2.5498303E-2,-2.2571359E-2,-2.7273847E-2,1.9793484E-2,-2.769755E-2,-2.816743E-2,-2.1550586E-2,8.1148636E-1,-1.9027764E-2,-1.590852E-2,-1.14568565E-2,-1.2099977E-2,5.7291985E-1,3.157416E-1,2.0507481E-2,2.0068636E-2,6.613414E-3,6.3977228E-3,8.897613E-3,8.543042E-3,3.6727572E-3,3.4572287E-3,3.0888507E-1,3.5846245E-1,-2.6645208E-2,-2.5401102E-2,-1.8571435E-2,-1.8979998E-2,-7.043965E-3,-7.3167128E-3,2.7140176E-1,2.1464752E-1,5.312971E-1,4.141336E-1,-3.2175495E-3,5.2026767E-1,3.6316198E-1,-6.22057E-3,-1.1207769E-2,-7.6725073E-3,4.8677184E-4,4.5544077E-3,6.340133E-4,5.203236E-4,1.4135428E-4,4.024867E-4,-1.0420012E-2,-2.9550532E-3],"split_indices":[3,3,1,3,3,1,2,3,2,3,3,3,4,5,2,3,3,3,1,2,5,5,3,5,4,4,4,1,1,5,5,3,3,3,3,5,0,3,3,5,5,0,3,5,0,3,3,0,2,5,3,0,0,2,1,3,0,0,0,3,0,0,0,3,0,0,0,0,0,0,0,0,0,0,0,0,0,0,3,0,3,0,3,0,3,0,0,0,0,0,0,0,4,0,0,0,3,0,0,0,0,3,4,0,0,0,0,0,0,0,0,5,1,0,0,0,0,0,0,1,1,2,3,0,2,2,0,0,0,0,0,0,0,0,0,0,0],"split_type":[0,0,0,0,0,0,0,0,0,0,0,0,0,0,0,0,0,0,0,0,0,0,0,0,0,0,0,0,0,0,0,0,0,0,0,0,0,0,0,0,0,0,0,0,0,0,0,0,0,0,0,0,0,0,0,0,0,0,0,0,0,0,0,0,0,0,0,0,0,0,0,0,0,0,0,0,0,0,0,0,0,0,0,0,0,0,0,0,0,0,0,0,0,0,0,0,0,0,0,0,0,0,0,0,0,0,0,0,0,0,0,0,0,0,0,0,0,0,0,0,0,0,0,0,0,0,0,0,0,0,0,0,0,0,0,0,0],"sum_hessian":[2.68603E5,1.65681E5,1.02922E5,1.19444E5,4.6237E4,7.4595E4,2.8327E4,7.5397E4,4.4047E4,2.8376E4,1.7861E4,5.5694E4,1.8901E4,1.788E4,1.0447E4,4.7098E4,2.8299E4,1.7895E4,2.6152E4,1.8901E4,9.475E3,9.402E3,8.459E3,1.7907E4,3.7787E4,9.331E3,9.57E3,8.832E3,9.048E3,9.477E3,9.7E2,2.8285E4,1.8813E4,1.7799E4,1.05E4,9.49E3,8.405E3,9.423E3,1.6729E4,9.431E3,9.47E3,2.98E2,9.177E3,9.329E3,7.3E1,4.151E3,4.308E3,8.899E3,9.008E3,1.9219E4,1.8568E4,1.3E2,9.201E3,9.278E3,2.92E2,5.721E3,3.111E3,5.25E3,3.798E3,9.098E3,3.79E2,7.65E2,2.05E2,1.5647E4,1.2638E4,9.39E3,9.423E3,8.372E3,9.427E3,8.401E3,2.099E3,9.244E3,2.46E2,8.316E3,1.107E3,8.384E3,8.345E3,3.92E2,9.039E3,5.82E2,8.888E3,3.884E3,5.293E3,6.2E1,9.267E3,3.097E3,1.054E3,3.194E3,1.114E3,8.929E3,7.9E1,9.34E3,9.879E3,9.338E3,9.23E3,6.4E1,9.214E3,3.5E1,2.57E2,5.296E3,4.25E2,8.475E3,6.23E2,5.235E3,1.0412E4,4.804E3,4.235E3,7.759E3,1.129E3,4.15E3,1.143E3,4.145E3,5.122E3,9.282E3,5.97E2,3.951E3,5.263E3,3.174E3,5.301E3,6.5E1,5.58E2,3.1E1,4.114E3,7E0,5.115E3,5.6E1,9E0,6E0,5.52E2,2.4E1,7E0,3.051E3,1.063E3,9.67E2,4.148E3,5.5E1,1E0],"tree_param":{"num_deleted":"0","num_feature":"8","num_nodes":"137","size_leaf_vector":"1"}},{"base_weights":[-9.1330454E-5,-1.358183E-1,8.418647E-2,-1.6106288E-1,-7.270953E-2,2.2431105E-2,1.0801271E-1,-1.7377092E-1,-1.3814938E-1,-8.7536134E-2,-4.5720905E-2,-8.132034E-3,4.1492574E-2,8.744993E-2,1.2055606E-1,-1.7812505E-1,-1.6722834E-1,-1.4623651E-1,-1.2111556E-1,-7.3145084E-2,-1.0010346E-1,-4.7629915E-2,-2.739257E-2,-2.0505415E-2,2.899266E-3,2.4436893E-2,5.007286E-2,7.4925E-2,9.563774E-2,1.1199267E-1,1.2547894E-1,-1.7665128E-1,-2.4377005E-2,-2.3055827E-2,-1.6357476E-1,-2.0644447E-2,-1.8774468E-2,-1.8688612E-2,-1.2096551E-1,-1.0202755E-2,-7.26309E-2,-9.848105E-2,-1.6146844E-2,-4.6702746E-2,-9.630467E-3,-2.3482738E-2,-6.038269E-3,-2.1286115E-2,-1.971792E-2,3.0826994E-3,-2.5917408E-3,5.297504E-3,2.3922585E-2,4.2440407E-2,5.7626035E-2,9.357308E-3,7.968628E-2,8.924033E-2,9.96104E-2,1.0759325E-1,1.1432432E-1,1.2155238E-1,1.2836507E-1,-2.3584133E-2,-2.3970313E-2,-2.2068145E-2,-2.0862313E-2,-1.2944218E-2,-1.2104307E-1,-9.8749995E-3,-9.63308E-3,-1.02235205E-1,-1.3169703E-2,-4.9175054E-2,-4.6113208E-2,-2.7514946E-2,-3.1094453E-3,-2.9407803E-3,-2.835455E-3,-2.7313493E-3,-2.6257872E-3,2.7285258E-3,2.9930412E-3,2.3316298E-2,3.3282514E-3,7.408453E-3,4.1881103E-2,9.114511E-3,5.69465E-2,7.5508654E-2,1.0799005E-2,8.84418E-2,1.246013E-2,1.380828E-2,1.2987045E-2,1.4525315E-2,1.37651395E-2,1.5669128E-2,1.5147029E-2,1.6116057E-2,1.6573843E-2,1.269645E-1,1.3056722E-1,-1.6444352E-2,-1.6027674E-2,-1.23893306E-1,-1.3661596E-2,-6.516051E-3,-5.1964708E-2,-6.2882015E-3,-6.095466E-3,-3.9671264E-3,-2.5758836E-3,2.220844E-3,3.953854E-3,2.9842502E-3,3.178734E-3,4.1302253E-2,5.7455986E-3,7.5533194E-3,7.767234E-3,1.0359933E-2,9.593277E-3,1.1921565E-2,1.0899427E-2,1.7257186E-2,1.6933275E-2,1.7511817E-2,1.8122004E-2,-2.003087E-2,-1.3002531E-2,-5.5305075E-2,-6.449419E-3,6.1308773E-4,2.5923115E-3,3.8927817E-3,1.3408952E-2,5.3863376E-3,5.5997246E-3,-8.576783E-3,-6.8358453E-3,-2.4085206E-3,9.280445E-5,2.857245E-4,3.714758E-4,4.4615788E-4,5.505386E-4,4.096442E-4,3.3979442E-3],"categories":[],"categories_nodes":[],"categories_segments":[],"categories_sizes":[],"default_left":[0,0,0,0,0,0,0,0,0,0,0,0,0,0,0,0,0,0,0,0,0,0,0,0,0,0,0,0,0,0,0,0,0,0,0,0,0,0,0,0,0,0,0,0,0,0,0,0,0,0,0,0,0,0,0,0,0,0,0,0,0,0,0,0,0,0,0,0,0,0,0,0,0,0,0,0,0,0,0,0,0,0,0,0,0,0,0,0,0,0,0,0,0,0,0,0,0,0,0,0,0,0,0,0,0,0,0,0,0,0,0,0,0,0,0,0,0,0,0,0,0,0,0,0,0,0,0,0,0,0,0,0,0,0,0,0,0,0,0,0,0,0,0,0,0,0,0,0,0],"id":8,"left_children":[1,3,5,7,9,11,13,15,17,19,21,23,25,27,29,31,33,35,37,39,41,43,45,47,49,51,53,55,57,59,61,63,-1,-1,65,-1,-1,-1,67,-1,69,71,-1,73,-1,75,-1,77,79,81,-1,-1,83,85,87,-1,89,91,93,95,97,99,101,-1,-1,-1,-1,-1,103,-1,-1,105,-1,107,109,111,-1,-1,-1,-1,-1,-1,113,115,-1,-1,117,-1,119,121,-1,123,-1,-1,-1,-1,-1,-1,-1,-1,-1,125,127,-1,-1,129,-1,-1,131,-1,-1,-1,-1,133,135,-1,-1,137,-1,-1,-1,-1,-1,-1,-1,-1,-1,-1,-1,-1,-1,139,-1,141,143,145,147,-1,-1,-1,-1,-1,-1,-1,-1,-1,-1,-1,-1],"loss_changes":[3.0695486E3,1.6375806E2,2.4358752E2,2.135608E1,1.1749588E1,2.6851957E1,3.080127E1,1.3155518E0,3.591278E0,3.4211884E0,3.6317444E-1,2.4166942E0,4.1530037E0,4.6348267E0,3.1138916E0,9.3566895E-2,2.5390625E-1,8.3499146E-1,5.6762695E-3,6.6070557E-3,3.143921E-1,2.0593262E-1,6.624192E-2,4.7106743E-3,3.8105324E-2,7.2006226E-2,1.0862579E0,4.5435333E-1,6.866455E-1,2.6559448E-1,5.181885E-1,7.9956055E-3,0E0,0E0,8.7890625E-3,0E0,0E0,0E0,4.463196E-3,0E0,5.760193E-4,1.1962891E-2,0E0,1.0972977E-2,0E0,5.956292E-4,0E0,5.340576E-5,1.0275841E-4,1.4250621E-2,0E0,0E0,3.9224625E-3,6.395531E-2,6.125641E-2,0E0,1.594925E-2,1.9821167E-2,1.471405E-1,5.6991577E-3,5.2993774E-2,4.2816162E-2,6.713867E-2,0E0,0E0,0E0,0E0,0E0,4.0893555E-3,0E0,0E0,8.043289E-3,0E0,1.1525154E-3,1.5707016E-3,4.8760697E-4,0E0,0E0,0E0,0E0,0E0,0E0,6.845236E-3,1.2981892E-3,0E0,0E0,2.4614334E-3,0E0,2.3727417E-3,1.5320778E-3,0E0,1.6860962E-3,0E0,0E0,0E0,0E0,0E0,0E0,0E0,0E0,0E0,7.873535E-3,1.7089844E-3,0E0,0E0,1.1477411E-2,0E0,0E0,2.1712184E-3,0E0,0E0,0E0,0E0,3.0586123E-3,2.3239926E-3,0E0,0E0,4.014969E-4,0E0,0E0,0E0,0E0,0E0,0E0,0E0,0E0,0E0,0E0,0E0,0E0,0E0,3.946781E-3,0E0,1.3756134E-3,3.2204948E-4,4.54057E-4,3.1136922E-3,0E0,0E0,0E0,0E0,0E0,0E0,0E0,0E0,0E0,0E0,0E0,0E0],"parents":[2147483647,0,0,1,1,2,2,3,3,4,4,5,5,6,6,7,7,8,8,9,9,10,10,11,11,12,12,13,13,14,14,15,15,16,16,17,17,18,18,19,19,20,20,21,21,22,22,23,23,24,24,25,25,26,26,27,27,28,28,29,29,30,30,31,31,34,34,38,38,40,40,41,41,43,43,45,45,47,47,48,48,49,49,52,52,53,53,54,54,56,56,57,57,58,58,59,59,60,60,61,61,62,62,68,68,71,71,73,73,74,74,75,75,82,82,83,83,86,86,88,88,89,89,91,91,101,101,102,102,105,105,108,108,113,113,114,114,117,117,131,131,133,133,134,134,135,135,136,136],"right_children":[2,4,6,8,10,12,14,16,18,20,22,24,26,28,30,32,34,36,38,40,42,44,46,48,50,52,54,56,58,60,62,64,-1,-1,66,-1,-1,-1,68,-1,70,72,-1,74,-1,76,-1,78,80,82,-1,-1,84,86,88,-1,90,92,94,96,98,100,102,-1,-1,-1,-1,-1,104,-1,-1,106,-1,108,110,112,-1,-1,-1,-1,-1,-1,114,116,-1,-1,118,-1,120,122,-1,124,-1,-1,-1,-1,-1,-1,-1,-1,-1,126,128,-1,-1,130,-1,-1,132,-1,-1,-1,-1,134,136,-1,-1,138,-1,-1,-1,-1,-1,-1,-1,-1,-1,-1,-1,-1,-1,140,-1,142,144,146,148,-1,-1,-1,-1,-1,-1,-1,-1,-1,-1,-1,-1],"split_conditions":[4.4352803E-1,1.6046928E-1,7.469496E-1,7.115478E-2,2.9589772E-1,5.818555E-1,8.267055E-1,2.6021669E-2,2.3913442E-1,5.134322E-1,3.7530178E-1,3.5846245E-1,6.468674E-1,7.974664E-1,9.30365E-1,2.2157788E-1,1.9793484E-2,2.1047918E-1,1.1089282E-1,2.0713195E-1,6.018001E-1,4.6425503E-1,4.0659654E-1,4.4870925E-1,3.5563624E-1,2.599157E-1,7.004363E-1,7.573738E-1,8.4803253E-1,9.010582E-1,9.614568E-1,6.7547016E-2,-2.4377005E-2,-2.3055827E-2,1.509234E-1,-2.0644447E-2,-1.8774468E-2,-1.8688612E-2,4.4525173E-2,-1.0202755E-2,1.1592176E-1,2.163881E-1,-1.6146844E-2,3.674563E-1,-9.630467E-3,3.2783848E-1,-6.038269E-3,4.481559E-1,3.5780963E-1,2.8850633E-1,-2.5917408E-3,5.297504E-3,5.9504896E-1,2.2633718E-1,1.9644731E-1,9.357308E-3,7.8621334E-1,8.259838E-1,1.1416776E-1,1.0061553E-1,6.523252E-2,9.4483435E-1,9.751255E-1,-2.3584133E-2,-2.3970313E-2,-2.2068145E-2,-2.0862313E-2,-1.2944218E-2,1.5786698E-1,-9.8749995E-3,-9.63308E-3,2.850878E-1,-1.3169703E-2,4.276088E-1,3.728262E-1,3.4531698E-1,-3.1094453E-3,-2.9407803E-3,-2.835455E-3,-2.7313493E-3,-2.6257872E-3,2.7285258E-3,5.247866E-1,5.9046245E-1,3.3282514E-3,7.408453E-3,6.5722704E-1,9.114511E-3,7.074996E-1,1.8353139E-1,1.0799005E-2,1.5883072E-1,1.246013E-2,1.380828E-2,1.2987045E-2,1.4525315E-2,1.37651395E-2,1.5669128E-2,1.5147029E-2,1.6116057E-2,1.6573843E-2,2.1497224E-2,9.857302E-1,-1.6444352E-2,-1.6027674E-2,1.4518662E-1,-1.3661596E-2,-6.516051E-3,3.6316198E-1,-6.2882015E-3,-6.095466E-3,-3.9671264E-3,-2.5758836E-3,4.1931766E-1,3.5901126E-1,2.9842502E-3,3.178734E-3,6.524726E-1,5.7455986E-3,7.5533194E-3,7.767234E-3,1.0359933E-2,9.593277E-3,1.1921565E-2,1.0899427E-2,1.7257186E-2,1.6933275E-2,1.7511817E-2,1.8122004E-2,-2.003087E-2,-1.3002531E-2,3.157416E-1,-6.449419E-3,4.5536223E-1,5.246269E-1,4.3247643E-1,4.3247643E-1,5.3863376E-3,5.5997246E-3,-8.576783E-3,-6.8358453E-3,-2.4085206E-3,9.280445E-5,2.857245E-4,3.714758E-4,4.4615788E-4,5.505386E-4,4.096442E-4,3.3979442E-3],"split_indices":[2,2,2,2,2,2,1,2,4,5,2,1,2,2,2,4,4,4,2,1,5,5,5,2,5,5,2,2,2,2,2,4,0,0,4,0,0,0,0,0,0,2,0,2,0,4,0,2,1,5,0,0,2,5,5,0,2,2,5,5,5,2,2,0,0,0,0,0,2,0,0,4,0,5,2,1,0,0,0,0,0,0,2,2,0,0,2,0,2,5,0,5,0,0,0,0,0,0,0,0,0,5,2,0,0,1,0,0,2,0,0,0,0,1,4,0,0,2,0,0,0,0,0,0,0,0,0,0,0,0,0,4,0,2,2,1,1,0,0,0,0,0,0,0,0,0,0,0,0],"split_type":[0,0,0,0,0,0,0,0,0,0,0,0,0,0,0,0,0,0,0,0,0,0,0,0,0,0,0,0,0,0,0,0,0,0,0,0,0,0,0,0,0,0,0,0,0,0,0,0,0,0,0,0,0,0,0,0,0,0,0,0,0,0,0,0,0,0,0,0,0,0,0,0,0,0,0,0,0,0,0,0,0,0,0,0,0,0,0,0,0,0,0,0,0,0,0,0,0,0,0,0,0,0,0,0,0,0,0,0,0,0,0,0,0,0,0,0,0,0,0,0,0,0,0,0,0,0,0,0,0,0,0,0,0,0,0,0,0,0,0,0,0,0,0,0,0,0,0,0,0],"sum_hessian":[2.68344E5,1.02795E5,1.65549E5,7.3423E4,2.9372E4,4.609E4,1.19459E5,4.7225E4,2.6198E4,1.8956E4,1.0416E4,1.7704E4,2.8386E4,4.5264E4,7.4195E4,2.8339E4,1.8886E4,1.7759E4,8.439E3,8.84E3,1.0116E4,9.432E3,9.84E2,8.344E3,9.36E3,9.502E3,1.8884E4,1.7897E4,2.7367E4,2.7092E4,4.7103E4,1.9054E4,9.285E3,8.895E3,9.991E3,8.598E3,9.161E3,6.3E1,8.376E3,1.406E3,7.434E3,9.358E3,7.58E2,9.083E3,3.49E2,8.06E2,1.78E2,4.177E3,4.167E3,9.284E3,7.6E1,3.14E2,9.188E3,9.396E3,9.488E3,8.396E3,9.501E3,1.0493E4,1.6874E4,9.401E3,1.7691E4,1.9973E4,2.713E4,9.736E3,9.318E3,9.528E3,4.63E2,3E1,8.346E3,4.317E3,3.117E3,1.313E3,8.045E3,1.733E3,7.35E3,6.3E1,7.43E2,1.134E3,3.043E3,1.076E3,3.091E3,4.7E1,9.237E3,5.265E3,3.923E3,3.95E2,9.001E3,5.92E2,8.896E3,1.129E3,8.372E3,8.492E3,2.001E3,8.589E3,8.285E3,8.825E3,5.76E2,8.071E3,9.62E3,9.415E3,1.0558E4,1.6619E4,1.0511E4,5.222E3,3.124E3,3.7E1,1.276E3,1.377E3,3.56E2,4.185E3,3.165E3,4.9E1,1.4E1,5.123E3,4.114E3,1.119E3,4.146E3,5.282E3,3.719E3,4.328E3,4.568E3,8.25E2,3.04E2,8.325E3,1.67E2,7.847E3,8.772E3,9.502E3,1.009E3,1.7E1,2E1,1.88E2,1.68E2,9.62E2,4.161E3,4.089E3,2.5E1,1.044E3,4.238E3,6.1E1,1.27E2,3E0,9.59E2,1.1E3,3.061E3,1.048E3,3.041E3,1.4E1,1.1E1],"tree_param":{"num_deleted":"0","num_feature":"8","num_nodes":"149","size_leaf_vector":"1"}},{"base_weights":[3.4986944E-5,-1.1749299E-1,7.2867975E-2,-1.3873178E-1,-6.1436582E-2,9.350104E-2,1.937163E-2,-1.4768179E-1,-1.1251353E-1,-7.4311204E-2,-3.9585363E-2,1.03546165E-1,7.427838E-2,3.5872646E-2,-7.024012E-3,-1.525914E-1,-1.373391E-1,-1.2094441E-1,-1.0435809E-1,-6.331176E-2,-8.502313E-2,-4.1252803E-2,-2.4177842E-2,1.08621E-1,9.5965944E-2,6.484088E-2,8.1554726E-2,4.3313213E-2,2.1142576E-2,2.5373572E-3,-1.7754806E-2,-1.4978479E-1,-1.554604E-1,-1.91213E-2,-1.7918564E-2,-1.8083852E-2,-1.6248867E-2,-1.0477378E-1,-9.098778E-2,-6.2841356E-2,-8.8236015E-3,-1.1571456E-2,-1.1263597E-2,-4.0428333E-2,-8.340113E-3,-2.0342916E-2,-5.2389894E-3,1.11389935E-1,1.0544665E-1,9.876741E-2,9.172254E-2,6.901388E-2,8.100486E-3,7.6769024E-2,8.4828116E-2,4.9916506E-2,3.6771625E-2,4.5921253E-3,2.0709071E-2,2.693793E-3,-2.139698E-3,-1.707778E-2,-2.4772312E-3,-2.0430066E-2,-1.478772E-1,-2.074464E-2,-2.1096637E-2,-1.4030223E-2,-1.45866275E-2,-1.4396795E-2,-1.1941688E-2,-8.544914E-3,-8.335057E-3,-3.9917644E-2,-4.2601783E-2,-2.1959802E-2,-2.670917E-3,1.1265024E-1,1.4752261E-2,1.4374347E-2,1.3941591E-2,1.3528049E-2,1.3051929E-2,1.2526144E-2,1.2049446E-2,6.946168E-2,8.773465E-3,1.0713589E-2,7.641697E-2,1.1798265E-2,1.1173347E-2,7.882379E-3,4.9340952E-2,6.309143E-3,3.6231115E-2,2.1050757E-2,2.6344885E-3,2.3021016E-3,2.601439E-3,-2.4202955E-3,-2.2830623E-3,-1.9953486E-2,-1.9067297E-2,-5.2971416E-3,-5.466731E-3,-9.078948E-3,-4.2489387E-2,-2.5607045E-3,-2.3048442E-2,1.558511E-2,1.50879E-2,9.638849E-3,9.304688E-3,9.433703E-3,1.0300846E-2,7.0273476E-3,6.6160182E-3,3.646332E-2,4.641484E-3,2.1590997E-2,2.7821527E-3,3.4230333E-3,1.937965E-3,-5.6398762E-3,-4.4708565E-2,-1.985755E-3,-3.150086E-3,5.1226923E-3,4.8889713E-3,3.0814728E-3,2.887953E-3,9.743373E-3,3.375906E-3,-2.3711852E-3,1.960562E-3,-5.5730906E-3,-6.418197E-3,3.6468505E-4,3.4795175E-3,3.0841827E-4,4.6459693E-4,3.017903E-4,8.7874185E-5],"categories":[],"categories_nodes":[],"categories_segments":[],"categories_sizes":[],"default_left":[0,0,0,0,0,0,0,0,0,0,0,0,0,0,0,0,0,0,0,0,0,0,0,0,0,0,0,0,0,0,0,0,0,0,0,0,0,0,0,0,0,0,0,0,0,0,0,0,0,0,0,0,0,0,0,0,0,0,0,0,0,0,0,0,0,0,0,0,0,0,0,0,0,0,0,0,0,0,0,0,0,0,0,0,0,0,0,0,0,0,0,0,0,0,0,0,0,0,0,0,0,0,0,0,0,0,0,0,0,0,0,0,0,0,0,0,0,0,0,0,0,0,0,0,0,0,0,0,0,0,0,0,0,0,0,0,0,0,0,0,0,0,0],"id":9,"left_children":[1,3,5,7,9,11,13,15,17,19,21,23,25,27,29,31,33,35,37,39,41,43,45,47,49,51,53,55,57,59,61,63,65,-1,-1,-1,-1,67,69,71,-1,-1,-1,73,-1,75,-1,77,79,81,83,85,-1,87,89,91,93,-1,95,97,-1,99,-1,-1,101,-1,-1,-1,-1,-1,-1,-1,-1,103,105,107,-1,109,-1,-1,-1,-1,-1,-1,-1,111,-1,-1,113,-1,-1,-1,115,-1,117,119,-1,-1,121,-1,-1,-1,-1,-1,-1,-1,123,-1,125,-1,-1,-1,-1,-1,-1,-1,-1,127,-1,129,-1,131,133,-1,135,-1,-1,-1,-1,-1,-1,137,139,-1,141,-1,-1,-1,-1,-1,-1,-1,-1],"loss_changes":[2.2945706E3,1.2209741E2,1.8267499E2,1.7436768E1,7.9256744E0,2.30542E1,2.0064526E1,2.7945557E0,1.2891693E0,2.084015E0,2.6749992E-1,3.00708E0,2.8098907E0,3.1058083E0,1.8182392E0,2.793579E-1,3.3636475E-1,9.933472E-3,4.398346E-2,5.1498413E-3,4.2419434E-3,1.5854836E-1,5.7073355E-2,4.0118408E-1,3.6495972E-1,3.423462E-1,3.5604858E-1,8.1163025E-1,5.282736E-2,2.7072288E-2,3.3710003E-3,5.078125E-2,7.598877E-3,0E0,0E0,0E0,0E0,6.362915E-3,1.2586117E-3,3.643036E-4,0E0,0E0,0E0,8.368492E-3,0E0,2.1836162E-4,0E0,4.373169E-2,4.4204712E-2,4.951477E-2,2.8747559E-2,1.15737915E-2,0E0,3.3187866E-3,6.309509E-2,4.376602E-2,5.0005913E-2,0E0,3.1564236E-3,1.2325585E-2,0E0,1.1861324E-4,0E0,0E0,2.4261475E-3,0E0,0E0,0E0,0E0,0E0,0E0,0E0,0E0,1.2845993E-3,1.9145012E-3,1.4254451E-4,0E0,1.1978149E-2,0E0,0E0,0E0,0E0,0E0,0E0,0E0,9.3460083E-4,0E0,0E0,1.1177063E-3,0E0,0E0,0E0,2.0198822E-3,0E0,2.3813248E-3,9.975433E-4,0E0,0E0,5.0279647E-3,0E0,0E0,0E0,0E0,0E0,0E0,0E0,3.33786E-4,0E0,3.453344E-5,0E0,0E0,0E0,0E0,0E0,0E0,0E0,0E0,3.452301E-4,0E0,7.748604E-6,0E0,1.1957847E-3,2.29365E-3,0E0,1.3682842E-3,0E0,0E0,0E0,0E0,0E0,0E0,3.3294465E-3,3.30586E-4,0E0,1.8807482E-3,0E0,0E0,0E0,0E0,0E0,0E0,0E0,0E0],"parents":[2147483647,0,0,1,1,2,2,3,3,4,4,5,5,6,6,7,7,8,8,9,9,10,10,11,11,12,12,13,13,14,14,15,15,16,16,17,17,18,18,19,19,20,20,21,21,22,22,23,23,24,24,25,25,26,26,27,27,28,28,29,29,30,30,31,31,32,32,37,37,38,38,39,39,43,43,45,45,47,47,48,48,49,49,50,50,51,51,53,53,54,54,55,55,56,56,58,58,59,59,61,61,64,64,73,73,74,74,75,75,77,77,85,85,88,88,92,92,94,94,95,95,98,98,106,106,108,108,117,117,119,119,121,121,122,122,124,124,131,131,132,132,134,134],"right_children":[2,4,6,8,10,12,14,16,18,20,22,24,26,28,30,32,34,36,38,40,42,44,46,48,50,52,54,56,58,60,62,64,66,-1,-1,-1,-1,68,70,72,-1,-1,-1,74,-1,76,-1,78,80,82,84,86,-1,88,90,92,94,-1,96,98,-1,100,-1,-1,102,-1,-1,-1,-1,-1,-1,-1,-1,104,106,108,-1,110,-1,-1,-1,-1,-1,-1,-1,112,-1,-1,114,-1,-1,-1,116,-1,118,120,-1,-1,122,-1,-1,-1,-1,-1,-1,-1,124,-1,126,-1,-1,-1,-1,-1,-1,-1,-1,128,-1,130,-1,132,134,-1,136,-1,-1,-1,-1,-1,-1,138,140,-1,142,-1,-1,-1,-1,-1,-1,-1,-1],"split_conditions":[3.4531698E-1,1.4518662E-1,2.0962359E-1,4.678612E-2,2.9589772E-1,1.007279E-1,3.5998732E-1,8.2889125E-3,2.3913442E-1,5.134322E-1,3.7530178E-1,5.3274926E-2,7.974664E-1,3.0000347E-1,4.8894882E-1,8.136522E-2,3.0141728E-2,2.1047918E-1,2.850878E-1,6.6197014E-1,2.1957384E-1,4.6425503E-1,4.0659654E-1,2.9316599E-2,8.2150236E-2,2.0222251E-1,6.462783E-1,2.504797E-1,2.599157E-1,3.5563624E-1,4.939411E-1,8.5249525E-1,1E0,-1.91213E-2,-1.7918564E-2,-1.8083852E-2,-1.6248867E-2,8.14013E-1,1.0633006E-1,2.114733E-1,-8.8236015E-3,-1.1571456E-2,-1.1263597E-2,5.7750195E-1,-8.340113E-3,3.321192E-1,-5.2389894E-3,1.9365458E-2,4.165649E-2,6.706744E-2,1.0061553E-1,1.7530063E-1,8.100486E-3,1.4285535E-1,1.18411414E-1,1.9644731E-1,2.2633718E-1,4.5921253E-3,3.5178527E-1,2.8850633E-1,-2.139698E-3,2.1526918E-1,-2.4772312E-3,-2.0430066E-2,1.9793484E-2,-2.074464E-2,-2.1096637E-2,-1.4030223E-2,-1.45866275E-2,-1.4396795E-2,-1.1941688E-2,-8.544914E-3,-8.335057E-3,5.760706E-1,2.1464752E-1,4.9820155E-1,-2.670917E-3,1.1710051E-2,1.4752261E-2,1.4374347E-2,1.3941591E-2,1.3528049E-2,1.3051929E-2,1.2526144E-2,1.2049446E-2,1.7189401E-1,8.773465E-3,1.0713589E-2,4.2374444E-1,1.1798265E-2,1.1173347E-2,7.882379E-3,2.4416028E-1,6.309143E-3,2.960701E-1,3.4840843E-1,2.6344885E-3,2.3021016E-3,4.18377E-1,-2.4202955E-3,-2.2830623E-3,-1.9953486E-2,-1.9067297E-2,-5.2971416E-3,-5.466731E-3,-9.078948E-3,4.276088E-1,-2.5607045E-3,3.2359493E-1,1.558511E-2,1.50879E-2,9.638849E-3,9.304688E-3,9.433703E-3,1.0300846E-2,7.0273476E-3,6.6160182E-3,2.9227602E-1,4.641484E-3,3.626061E-1,2.7821527E-3,3.0888507E-1,3.5843346E-1,-5.6398762E-3,5.812226E-1,-1.985755E-3,-3.150086E-3,5.1226923E-3,4.8889713E-3,3.0814728E-3,2.887953E-3,5.312971E-1,4.245502E-1,-2.3711852E-3,4.2183644E-1,-5.5730906E-3,-6.418197E-3,3.6468505E-4,3.4795175E-3,3.0841827E-4,4.6459693E-4,3.017903E-4,8.7874185E-5],"split_indices":[1,1,3,1,2,3,3,0,4,5,2,3,2,3,3,4,1,4,4,3,2,5,5,3,3,3,0,3,5,5,3,5,3,0,0,0,0,3,1,1,0,0,0,3,0,4,0,3,3,3,5,3,0,3,3,5,5,0,3,5,0,0,0,0,4,0,0,0,0,0,0,0,0,3,1,3,0,3,0,0,0,0,0,0,0,3,0,0,4,0,0,0,3,0,3,3,0,0,3,0,0,0,0,0,0,0,5,0,4,0,0,0,0,0,0,0,0,3,0,4,0,5,1,0,3,0,0,0,0,0,0,2,1,0,3,0,0,0,0,0,0,0,0],"split_type":[0,0,0,0,0,0,0,0,0,0,0,0,0,0,0,0,0,0,0,0,0,0,0,0,0,0,0,0,0,0,0,0,0,0,0,0,0,0,0,0,0,0,0,0,0,0,0,0,0,0,0,0,0,0,0,0,0,0,0,0,0,0,0,0,0,0,0,0,0,0,0,0,0,0,0,0,0,0,0,0,0,0,0,0,0,0,0,0,0,0,0,0,0,0,0,0,0,0,0,0,0,0,0,0,0,0,0,0,0,0,0,0,0,0,0,0,0,0,0,0,0,0,0,0,0,0,0,0,0,0,0,0,0,0,0,0,0,0,0,0,0,0,0],"sum_hessian":[2.68058E5,1.0256E5,1.65498E5,7.4378E4,2.8182E4,1.19433E5,4.6065E4,5.5446E4,1.8932E4,1.7732E4,1.045E4,7.8439E4,4.0994E4,2.8345E4,1.772E4,3.7589E4,1.7857E4,9.302E3,9.63E3,8.752E3,8.98E3,9.428E3,1.022E3,4.6976E4,3.1463E4,1.7851E4,2.3143E4,1.8831E4,9.514E3,9.371E3,8.349E3,1.9028E4,1.8561E4,8.372E3,9.485E3,1.33E2,9.169E3,9.333E3,2.97E2,7.263E3,1.489E3,5.186E3,3.794E3,9.07E3,3.58E2,8.13E2,2.09E2,2.5072E4,2.1904E4,1.8938E4,1.2525E4,9.402E3,8.449E3,9.41E3,1.3733E4,9.368E3,9.463E3,3.05E2,9.209E3,9.293E3,7.8E1,4.109E3,4.24E3,9.208E3,9.82E3,9.252E3,9.309E3,8.176E3,1.157E3,3.1E1,2.66E2,4.193E3,3.07E3,7.36E3,1.71E3,1.81E2,6.32E2,1.4626E4,1.0446E4,1.2607E4,9.297E3,9.537E3,9.401E3,7.721E3,4.804E3,8.401E3,1.001E3,1.014E3,8.396E3,5.323E3,8.41E3,5.78E2,8.79E3,4.76E2,8.987E3,7.063E3,2.146E3,5.8E1,9.235E3,4.41E2,3.668E3,9.225E3,5.95E2,4.133E3,3.227E3,5E0,1.705E3,5.4E1,1.27E2,2.113E3,1.2513E4,1.069E3,7.332E3,1.7E2,8.226E3,5.05E2,8.285E3,7.913E3,1.074E3,2.886E3,4.177E3,4.124E3,5.111E3,1.366E3,3.39E2,7E0,1.2E2,6E2,7.313E3,2.5E2,2.636E3,2.9E1,4.095E3,5E0,5.106E3,1.68E2,1.71E2,2.1E1,8E0,2.71E2,3.824E3,4.2E3,9.06E2],"tree_param":{"num_deleted":"0","num_feature":"8","num_nodes":"143","size_leaf_vector":"1"}},{"base_weights":[-1.207469E-4,6.297953E-2,-1.01737276E-1,8.096384E-2,1.6722573E-2,-1.23998724E-1,-6.1759192E-2,8.962184E-2,6.431791E-2,3.1119833E-2,-6.1313584E-3,-1.3039416E-1,-1.09126925E-1,-4.3759093E-2,-8.148047E-2,9.39967E-2,8.303622E-2,5.6148265E-2,7.0572615E-2,3.752225E-2,1.8283974E-2,2.192E-3,-1.5372819E-2,-1.3348427E-1,-1.2567392E-1,-1.1526588E-1,-1.03368714E-1,-3.3441685E-2,-5.389957E-2,-9.00535E-2,-7.37255E-2,9.651595E-2,9.136821E-2,8.54672E-2,7.938488E-2,5.9728116E-2,5.2089736E-2,6.643809E-2,7.3409796E-2,4.322205E-2,3.18341E-2,3.983297E-3,1.7932022E-2,2.3184298E-3,-1.8593426E-3,-1.4778755E-2,-1.5958121E-2,-1.3239843E-1,-1.8257681E-2,-1.7267881E-2,-1.654797E-2,-1.7009579E-2,-1.5490639E-2,-1.04491964E-1,-9.397948E-2,-2.0922873E-2,-3.482666E-2,-4.7561238E-3,-5.4539617E-2,-9.025574E-2,-9.935626E-3,-9.856734E-3,-1.0299268E-2,9.870451E-2,9.5732905E-2,1.2534976E-2,9.01252E-2,1.1766069E-2,8.422447E-2,8.064469E-2,1.0443283E-2,6.011406E-2,5.6410264E-2,7.0427055E-3,6.7849676E-3,6.6742755E-2,8.615158E-3,7.183051E-2,1.021395E-2,6.8284958E-3,4.271526E-2,5.4510254E-3,3.135195E-2,1.8221084E-2,2.2805897E-3,1.9753894E-3,2.243734E-3,-1.9667405E-3,-2.0527677E-3,-2.1217312E-3,-2.2224172E-3,-1.7680695E-2,-1.7953122E-2,-1.3876237E-2,-1.4214358E-2,-1.4265248E-2,-9.312735E-2,-1.7595977E-2,-4.530787E-3,-4.585847E-3,-3.5484277E-2,-5.3184453E-2,-5.543416E-2,-1.4014033E-2,-1.2135345E-2,1.3689682E-2,1.3199542E-2,1.2992516E-2,1.2761146E-2,1.2263186E-2,1.2044721E-2,1.1451882E-2,1.1189751E-2,1.09627005E-2,1.0705956E-2,8.341281E-3,8.0528995E-3,7.154232E-3,7.7369264E-3,9.269471E-3,8.941817E-3,9.775094E-3,9.557406E-3,6.090195E-3,4.2550743E-2,3.1554677E-2,4.0164385E-3,2.3966255E-3,2.5014644E-3,2.582385E-3,1.03321E-3,-9.747068E-3,-1.2614892E-2,-4.184586E-3,-1.7501038E-2,-4.886056E-3,-4.7286786E-3,-5.3521726E-2,-4.8269548E-2,-7.4235504E-3,-7.911758E-3,5.7920245E-3,5.65925E-3,4.306725E-3,4.1918345E-3,2.08673E-3,3.0158162E-3,-1.9552046E-3,1.0787168E-3,-1.7839588E-2,-2.1525547E-3,-5.354092E-2,-3.1441895E-3,-7.4347686E-3,-5.3927344E-3,4.9417594E-4,2.8044035E-4,1.0003793E-3,4.015992E-4,7.805829E-5,2.0269692E-4,-2.8625543E-3,-2.3543227E-3,-7.20667E-3,-1.8903225E-3],"categories":[],"categories_nodes":[],"categories_segments":[],"categories_sizes":[],"default_left":[0,0,0,0,0,0,0,0,0,0,0,0,0,0,0,0,0,0,0,0,0,0,0,0,0,0,0,0,0,0,0,0,0,0,0,0,0,0,0,0,0,0,0,0,0,0,0,0,0,0,0,0,0,0,0,0,0,0,0,0,0,0,0,0,0,0,0,0,0,0,0,0,0,0,0,0,0,0,0,0,0,0,0,0,0,0,0,0,0,0,0,0,0,0,0,0,0,0,0,0,0,0,0,0,0,0,0,0,0,0,0,0,0,0,0,0,0,0,0,0,0,0,0,0,0,0,0,0,0,0,0,0,0,0,0,0,0,0,0,0,0,0,0,0,0,0,0,0,0,0,0,0,0,0,0,0,0,0,0,0,0,0,0,0,0],"id":10,"left_children":[1,3,5,7,9,11,13,15,17,19,21,23,25,27,29,31,33,35,37,39,41,43,45,47,49,51,53,55,57,59,61,63,65,67,69,71,73,75,77,79,81,-1,83,85,-1,87,89,91,-1,-1,-1,-1,-1,93,95,97,99,-1,101,103,-1,-1,-1,105,107,-1,109,-1,111,113,-1,115,117,-1,-1,119,-1,121,-1,-1,123,-1,125,127,-1,-1,129,-1,-1,-1,-1,-1,-1,-1,-1,-1,131,133,-1,-1,135,137,139,-1,-1,-1,-1,-1,-1,-1,-1,-1,-1,-1,-1,-1,-1,-1,-1,-1,-1,-1,-1,-1,141,143,-1,-1,-1,145,147,-1,-1,-1,149,-1,-1,151,153,-1,-1,-1,-1,-1,-1,155,157,-1,159,161,-1,163,-1,-1,-1,-1,-1,-1,-1,-1,-1,-1,-1,-1,-1],"loss_changes":[1.7205272E3,1.3770801E2,9.147424E1,1.7172546E1,1.5248611E1,6.265503E0,1.3048523E1,2.2512207E0,2.0802155E0,2.3358727E0,1.3778248E0,6.565552E-1,6.90155E-1,2.0095863E0,1.1597519E0,3.0307007E-1,2.7111816E-1,2.539215E-1,2.6605988E-1,6.1362267E-1,3.7153006E-2,1.9106675E-2,2.7153492E-3,4.7943115E-2,1.14990234E-1,3.0517578E-3,9.836578E-2,1.6453934E-1,1.13227844E-1,2.066803E-2,6.954193E-3,3.173828E-2,4.2404175E-2,3.8345337E-2,2.1942139E-2,8.636475E-3,6.9999695E-4,2.6817322E-3,4.824066E-2,3.391266E-2,3.842926E-2,0E0,2.3088455E-3,8.600816E-3,0E0,1.08003616E-4,1.9621849E-4,1.5869141E-3,0E0,0E0,0E0,0E0,0E0,3.40271E-3,1.4543533E-3,3.9765865E-2,3.0355453E-3,0E0,8.4095E-3,3.8909912E-4,0E0,0E0,0E0,1.9378662E-3,3.8909912E-3,0E0,3.3569336E-4,0E0,3.7155151E-3,3.8146973E-5,0E0,6.4468384E-4,4.3153763E-4,0E0,0E0,7.8964233E-4,0E0,3.2424927E-4,0E0,0E0,1.7814636E-3,0E0,1.8110275E-3,7.402897E-4,0E0,0E0,3.8085915E-3,0E0,0E0,0E0,0E0,0E0,0E0,0E0,0E0,0E0,6.269455E-3,4.258752E-4,0E0,0E0,2.7656555E-5,3.6325455E-3,1.9283295E-3,0E0,0E0,0E0,0E0,0E0,0E0,0E0,0E0,0E0,0E0,0E0,0E0,0E0,0E0,0E0,0E0,0E0,0E0,0E0,0E0,0E0,2.2315979E-4,4.4250488E-4,0E0,0E0,0E0,1.5542507E-3,1.4560206E-3,0E0,0E0,0E0,9.930134E-5,0E0,0E0,7.753372E-4,1.2138486E-2,0E0,0E0,0E0,0E0,0E0,0E0,8.239411E-6,5.216487E-4,0E0,4.3160515E-4,3.4855306E-4,0E0,2.5367737E-4,0E0,0E0,0E0,0E0,0E0,0E0,0E0,0E0,0E0,0E0,0E0,0E0,0E0],"parents":[2147483647,0,0,1,1,2,2,3,3,4,4,5,5,6,6,7,7,8,8,9,9,10,10,11,11,12,12,13,13,14,14,15,15,16,16,17,17,18,18,19,19,20,20,21,21,22,22,23,23,24,24,25,25,26,26,27,27,28,28,29,29,30,30,31,31,32,32,33,33,34,34,35,35,36,36,37,37,38,38,39,39,40,40,42,42,43,43,45,45,46,46,47,47,53,53,54,54,55,55,56,56,58,58,59,59,63,63,64,64,66,66,68,68,69,69,71,71,72,72,75,75,77,77,80,80,82,82,83,83,86,86,96,96,97,97,100,100,101,101,102,102,124,124,125,125,129,129,130,130,134,134,137,137,138,138,145,145,146,146,148,148,149,149,151,151],"right_children":[2,4,6,8,10,12,14,16,18,20,22,24,26,28,30,32,34,36,38,40,42,44,46,48,50,52,54,56,58,60,62,64,66,68,70,72,74,76,78,80,82,-1,84,86,-1,88,90,92,-1,-1,-1,-1,-1,94,96,98,100,-1,102,104,-1,-1,-1,106,108,-1,110,-1,112,114,-1,116,118,-1,-1,120,-1,122,-1,-1,124,-1,126,128,-1,-1,130,-1,-1,-1,-1,-1,-1,-1,-1,-1,132,134,-1,-1,136,138,140,-1,-1,-1,-1,-1,-1,-1,-1,-1,-1,-1,-1,-1,-1,-1,-1,-1,-1,-1,-1,-1,142,144,-1,-1,-1,146,148,-1,-1,-1,150,-1,-1,152,154,-1,-1,-1,-1,-1,-1,156,158,-1,160,162,-1,164,-1,-1,-1,-1,-1,-1,-1,-1,-1,-1,-1,-1,-1],"split_conditions":[4.9820155E-1,2.0962359E-1,1.5538579E-1,1.007279E-1,3.5998732E-1,3.0141728E-2,5.134322E-1,5.3274926E-2,7.974664E-1,3.0000347E-1,4.8894882E-1,8.5249525E-1,2.1047918E-1,4.276088E-1,2.850878E-1,2.7943654E-2,8.2150236E-2,2.0222251E-1,6.462783E-1,2.504797E-1,2.599157E-1,3.5563624E-1,4.939411E-1,1E0,1.9793484E-2,8.2176074E-2,2.3913442E-1,5.7093316E-1,5.812226E-1,1.4518662E-1,7.426809E-1,1.42253125E-2,3.7651107E-2,5.827727E-2,8.65733E-2,1.7530063E-1,2.0642662E-1,1.4616017E-1,8.532977E-1,1.9644731E-1,2.2633718E-1,3.983297E-3,3.5178527E-1,2.8850633E-1,-1.8593426E-3,4.890605E-1,4.945462E-1,6.7547016E-2,-1.8257681E-2,-1.7267881E-2,-1.654797E-2,-1.7009579E-2,-1.5490639E-2,8.707577E-1,1.1089282E-1,4.0659654E-1,5.760706E-1,-4.7561238E-3,6.585704E-1,6.018001E-1,-9.935626E-3,-9.856734E-3,-1.0299268E-2,9.184248E-3,2.18142E-2,1.2534976E-2,4.4508178E-2,1.1766069E-2,7.011803E-2,8.525727E-2,1.0443283E-2,1.7189401E-1,5.196723E-1,7.0427055E-3,6.7849676E-3,1.4285535E-1,8.615158E-3,1.2172492E-1,1.021395E-2,6.8284958E-3,2.4416028E-1,5.4510254E-3,2.960701E-1,4.9582872E-1,2.2805897E-3,1.9753894E-3,4.1854924E-1,-1.9667405E-3,-2.0527677E-3,-2.1217312E-3,-2.2224172E-3,-1.7680695E-2,-1.7953122E-2,-1.3876237E-2,-1.4214358E-2,-1.4265248E-2,4.4525173E-2,2.842336E-1,-4.530787E-3,-4.585847E-3,2.759761E-1,3.157416E-1,6.6565514E-1,-1.4014033E-2,-1.2135345E-2,1.3689682E-2,1.3199542E-2,1.2992516E-2,1.2761146E-2,1.2263186E-2,1.2044721E-2,1.1451882E-2,1.1189751E-2,1.09627005E-2,1.0705956E-2,8.341281E-3,8.0528995E-3,7.154232E-3,7.7369264E-3,9.269471E-3,8.941817E-3,9.775094E-3,9.557406E-3,6.090195E-3,2.4659196E-1,2.9310945E-1,4.0164385E-3,2.3966255E-3,2.5014644E-3,4.245502E-1,3.5843346E-1,-9.747068E-3,-1.2614892E-2,-4.184586E-3,3.4531698E-1,-4.886056E-3,-4.7286786E-3,2.7140176E-1,2.146627E-1,-7.4235504E-3,-7.911758E-3,5.7920245E-3,5.65925E-3,4.306725E-3,4.1918345E-3,4.1411796E-1,3.0888507E-1,-1.9552046E-3,4.1931766E-1,3.2783848E-1,-2.1525547E-3,3.6316198E-1,-3.1441895E-3,-7.4347686E-3,-5.3927344E-3,4.9417594E-4,2.8044035E-4,1.0003793E-3,4.015992E-4,7.805829E-5,2.0269692E-4,-2.8625543E-3,-2.3543227E-3,-7.20667E-3,-1.8903225E-3],"split_indices":[3,3,2,3,3,1,5,3,2,3,3,5,4,5,4,3,3,3,0,3,5,5,3,3,4,4,4,3,3,1,3,3,3,3,3,3,3,3,2,5,5,0,3,5,0,3,3,4,0,0,0,0,0,3,2,5,3,0,3,5,0,0,0,3,3,0,3,0,3,3,0,3,0,0,0,3,0,3,0,0,3,0,3,1,0,0,3,0,0,0,0,0,0,0,0,0,0,1,0,0,1,4,3,0,0,0,0,0,0,0,0,0,0,0,0,0,0,0,0,0,0,0,0,0,3,3,0,0,0,1,1,0,0,0,1,0,0,1,1,0,0,0,0,0,0,3,5,0,1,4,0,2,0,0,0,0,0,0,0,0,0,0,0,0,0],"split_type":[0,0,0,0,0,0,0,0,0,0,0,0,0,0,0,0,0,0,0,0,0,0,0,0,0,0,0,0,0,0,0,0,0,0,0,0,0,0,0,0,0,0,0,0,0,0,0,0,0,0,0,0,0,0,0,0,0,0,0,0,0,0,0,0,0,0,0,0,0,0,0,0,0,0,0,0,0,0,0,0,0,0,0,0,0,0,0,0,0,0,0,0,0,0,0,0,0,0,0,0,0,0,0,0,0,0,0,0,0,0,0,0,0,0,0,0,0,0,0,0,0,0,0,0,0,0,0,0,0,0,0,0,0,0,0,0,0,0,0,0,0,0,0,0,0,0,0,0,0,0,0,0,0,0,0,0,0,0,0,0,0,0,0,0,0],"sum_hessian":[2.68326E5,1.65535E5,1.02791E5,1.19193E5,4.6342E4,6.6024E4,3.6767E4,7.8407E4,4.0786E4,2.8431E4,1.7911E4,4.6164E4,1.986E4,1.9224E4,1.7543E4,4.7103E4,3.1304E4,1.769E4,2.3096E4,1.8968E4,9.463E3,9.424E3,8.487E3,2.7883E4,1.8281E4,9.603E3,1.0257E4,9.531E3,9.693E3,8.327E3,9.216E3,2.4033E4,2.307E4,1.8779E4,1.2525E4,9.392E3,8.298E3,9.409E3,1.3687E4,9.471E3,9.497E3,2.83E2,9.18E3,9.351E3,7.3E1,4.225E3,4.262E3,1.8645E4,9.238E3,9.26E3,9.021E3,1.29E2,9.474E3,9.152E3,1.105E3,9.51E2,8.58E3,3.25E2,9.368E3,8.22E3,1.07E2,7.876E3,1.34E3,6.3E3,1.7733E4,9.483E3,1.3587E4,7.262E3,1.1517E4,7.321E3,5.204E3,8.398E3,9.94E2,7.231E3,1.067E3,8.335E3,1.074E3,8.385E3,5.302E3,5.92E2,8.879E3,4.96E2,9.001E3,7.086E3,2.094E3,5.5E1,9.296E3,3.157E3,1.068E3,3.185E3,1.077E3,9.275E3,9.37E3,4.143E3,5.009E3,6.5E1,1.04E3,7.56E2,1.95E2,4.027E3,4.553E3,3.749E3,5.619E3,4.3E1,8.177E3,1.057E3,5.243E3,9.361E3,8.372E3,5.205E3,8.382E3,6.346E3,5.171E3,4.162E3,3.159E3,1.061E3,7.337E3,2.6E2,7.34E2,1.005E3,7.33E3,4.183E3,4.202E3,5.24E2,8.355E3,7.917E3,1.084E3,3.35E3,3.736E3,7.263E3,2.033E3,3.3E1,1.007E3,3E0,7.53E2,1.326E3,3.227E3,3.499E3,2.5E2,5.21E3,4.09E2,4.195E3,4.16E3,3.745E3,4.172E3,3.391E3,3.872E3,5E0,2.028E3,6.06E2,1.47E2,3.496E3,3E0,1.32E2,1.18E2,4E0,3.387E3,2.6E1,3.846E3,9.37E2,1.091E3,5E1,5.56E2,3.495E3,1E0],"tree_param":{"num_deleted":"0","num_feature":"8","num_nodes":"165","size_leaf_vector":"1"}},{"base_weights":[-6.030675E-5,5.452987E-2,-8.7996274E-2,7.005978E-2,1.4463533E-2,-4.6060465E-2,-1.03911154E-1,7.755223E-2,5.563763E-2,2.6929813E-2,-5.224426E-3,-5.56349E-2,-2.9767718E-2,-1.1060655E-1,-8.429359E-2,8.094542E-2,7.118178E-2,4.857341E-2,6.1075367E-2,1.5846113E-2,3.2459963E-2,-1.3306258E-2,1.9049052E-3,-4.741456E-2,-6.367091E-2,-3.0953282E-2,-1.828983E-2,-1.1427151E-1,-1.0285484E-1,-7.812984E-2,-9.0518385E-2,8.308903E-2,7.8075126E-2,7.283492E-2,6.8021536E-2,5.168761E-2,4.5077015E-2,6.377759E-2,5.780613E-2,3.4335984E-3,1.552434E-2,3.7390184E-2,2.757413E-2,-1.2771324E-2,-1.3818946E-2,2.0224096E-3,-1.6871659E-3,-6.627807E-3,-4.7065195E-2,-8.422107E-3,-8.673725E-3,-3.0308584E-2,-6.25622E-3,-1.5289911E-2,-3.927015E-3,-1.16426595E-1,-1.1218541E-1,-1.0606315E-1,-1.3366075E-2,-9.520619E-3,-7.838966E-2,-9.002012E-2,-1.2692771E-2,8.429947E-2,1.0994532E-2,1.0682389E-2,1.0375605E-2,9.959723E-3,9.6229E-3,9.289344E-3,9.021595E-3,5.2022953E-2,4.8883256E-2,6.1457655E-3,5.9855497E-3,8.879759E-3,8.419812E-3,8.093009E-3,5.7235356E-2,1.6069384E-2,1.5116026E-2,5.9095947E-3,3.6962494E-2,4.72851E-3,2.7141584E-2,-1.841816E-3,-1.7110625E-3,-1.9305251E-3,-1.8376482E-3,1.9542202E-3,1.7532329E-3,-6.3988566E-3,-6.242848E-3,-3.3400595E-2,-3.0067774E-2,-1.989595E-3,-1.687358E-2,-1.5537154E-2,-1.580077E-2,-1.5301542E-2,-1.4905153E-2,-1.3611471E-2,-1.4311899E-2,-1.03657665E-2,-1.0681674E-2,-1.2217488E-2,-1.1939784E-2,1.1852292E-2,1.130804E-2,7.2226827E-3,6.969313E-3,6.1885836E-3,6.6971676E-3,7.7157295E-3,7.015669E-3,3.762371E-3,2.1600497E-3,2.0627934E-3,1.9287169E-3,5.063987E-3,4.9120276E-3,3.7290873E-3,2.6729465E-2,2.5659201E-3,1.4640165E-3,-7.2215386E-3,-3.315999E-2,-3.9461674E-3,-4.105428E-3,-2.314125E-3,-1.5930113E-3,3.6268008E-3,3.4801203E-3,7.5425524E-3,2.5280905E-3,1.483578E-3,-2.121822E-3,-4.2199013E-3,-3.417534E-2,2.1534716E-4,2.6730408E-3,3.5902322E-4,2.8534723E-4,2.2620177E-4,7.6324024E-5,-4.3265894E-3,-4.9792393E-3],"categories":[],"categories_nodes":[],"categories_segments":[],"categories_sizes":[],"default_left":[0,0,0,0,0,0,0,0,0,0,0,0,0,0,0,0,0,0,0,0,0,0,0,0,0,0,0,0,0,0,0,0,0,0,0,0,0,0,0,0,0,0,0,0,0,0,0,0,0,0,0,0,0,0,0,0,0,0,0,0,0,0,0,0,0,0,0,0,0,0,0,0,0,0,0,0,0,0,0,0,0,0,0,0,0,0,0,0,0,0,0,0,0,0,0,0,0,0,0,0,0,0,0,0,0,0,0,0,0,0,0,0,0,0,0,0,0,0,0,0,0,0,0,0,0,0,0,0,0,0,0,0,0,0,0,0,0,0,0,0,0,0,0,0,0,0,0],"id":11,"left_children":[1,3,5,7,9,11,13,15,17,19,21,23,25,27,29,31,33,35,37,39,41,43,45,47,49,51,53,55,57,59,61,63,65,67,69,71,73,75,77,-1,79,81,83,85,87,89,-1,-1,91,-1,-1,93,-1,95,-1,97,99,101,-1,-1,103,105,-1,107,-1,-1,-1,-1,-1,-1,-1,109,111,-1,-1,-1,-1,-1,113,115,117,-1,119,-1,121,-1,-1,-1,-1,123,-1,-1,-1,125,127,-1,129,-1,-1,-1,-1,-1,-1,-1,-1,-1,-1,-1,-1,-1,-1,-1,-1,-1,-1,-1,-1,-1,-1,-1,-1,-1,131,133,135,-1,137,-1,-1,-1,-1,-1,-1,139,141,143,-1,-1,145,-1,-1,-1,-1,-1,-1,-1,-1],"loss_changes":[1.2874828E3,1.02961914E2,6.855493E1,1.2881775E1,1.1345156E1,4.4070473E0,9.771484E0,1.6906433E0,1.5633392E0,1.7343044E0,1.0326563E0,1.1728287E0,1.4181232E-1,1.5653687E0,7.200775E-1,3.085327E-1,1.3757324E-1,1.9083023E-1,1.9981384E-1,2.8914213E-2,4.5377922E-1,2.1272898E-3,1.6184948E-2,3.3187866E-3,3.6087036E-3,9.354305E-2,3.163296E-2,1.5637207E-1,1.9198608E-1,1.2748718E-2,9.32312E-3,4.258728E-2,2.178955E-2,2.2613525E-2,4.66156E-3,6.2732697E-3,9.3460083E-4,2.960205E-2,1.0425568E-2,0E0,1.7871857E-3,2.4576187E-2,3.0070305E-2,4.273653E-5,1.7398596E-4,7.0636347E-3,0E0,0E0,2.1362305E-4,0E0,0E0,5.777359E-3,0E0,3.6977232E-4,0E0,4.196167E-3,2.8961182E-2,2.105713E-3,0E0,0E0,6.2065125E-3,2.2125244E-4,0E0,8.918762E-3,0E0,0E0,0E0,0E0,0E0,0E0,0E0,4.97818E-4,3.0708313E-4,0E0,0E0,0E0,0E0,0E0,1.1005402E-3,4.4977665E-4,6.480217E-4,0E0,1.3504028E-3,0E0,1.3570786E-3,0E0,0E0,0E0,0E0,2.811905E-3,0E0,0E0,0E0,1.3840199E-3,1.8644333E-3,0E0,8.7700784E-5,0E0,0E0,0E0,0E0,0E0,0E0,0E0,0E0,0E0,0E0,0E0,0E0,0E0,0E0,0E0,0E0,0E0,0E0,0E0,0E0,0E0,0E0,0E0,0E0,0E0,3.00169E-4,7.671211E-4,1.7810734E-3,0E0,1.08361244E-4,0E0,0E0,0E0,0E0,0E0,0E0,2.237596E-3,2.3037754E-4,9.405557E-4,0E0,0E0,1.1048019E-3,0E0,0E0,0E0,0E0,0E0,0E0,0E0,0E0],"parents":[2147483647,0,0,1,1,2,2,3,3,4,4,5,5,6,6,7,7,8,8,9,9,10,10,11,11,12,12,13,13,14,14,15,15,16,16,17,17,18,18,19,19,20,20,21,21,22,22,23,23,24,24,25,25,26,26,27,27,28,28,29,29,30,30,31,31,32,32,33,33,34,34,35,35,36,36,37,37,38,38,40,40,41,41,42,42,43,43,44,44,45,45,48,48,51,51,53,53,55,55,56,56,57,57,60,60,61,61,63,63,71,71,72,72,78,78,79,79,80,80,82,82,84,84,89,89,93,93,94,94,96,96,122,122,123,123,124,124,126,126,133,133,134,134,135,135,138,138],"right_children":[2,4,6,8,10,12,14,16,18,20,22,24,26,28,30,32,34,36,38,40,42,44,46,48,50,52,54,56,58,60,62,64,66,68,70,72,74,76,78,-1,80,82,84,86,88,90,-1,-1,92,-1,-1,94,-1,96,-1,98,100,102,-1,-1,104,106,-1,108,-1,-1,-1,-1,-1,-1,-1,110,112,-1,-1,-1,-1,-1,114,116,118,-1,120,-1,122,-1,-1,-1,-1,124,-1,-1,-1,126,128,-1,130,-1,-1,-1,-1,-1,-1,-1,-1,-1,-1,-1,-1,-1,-1,-1,-1,-1,-1,-1,-1,-1,-1,-1,-1,-1,132,134,136,-1,138,-1,-1,-1,-1,-1,-1,140,142,144,-1,-1,146,-1,-1,-1,-1,-1,-1,-1,-1],"split_conditions":[4.9820155E-1,2.0962359E-1,7.462538E-1,1.007279E-1,3.5998732E-1,2.9589772E-1,4.678612E-2,5.647274E-2,7.974664E-1,6.468674E-1,3.5846245E-1,5.134322E-1,3.7530178E-1,8.2889125E-3,8.186082E-1,3.396405E-2,8.3237134E-2,2.0222251E-1,1.21912815E-1,2.599157E-1,2.504797E-1,4.939411E-1,3.5563624E-1,2.0713195E-1,7.3978055E-1,4.6425503E-1,4.0659654E-1,5.305062E-1,7.115478E-2,6.018001E-1,8.723613E-1,2.18142E-2,4.4508178E-2,7.011803E-2,9.566664E-2,1.7530063E-1,2.0630775E-1,1.1416776E-1,1.4285535E-1,3.4335984E-3,3.508942E-1,1.9644731E-1,2.2633718E-1,3.508423E-1,3.499549E-1,3.2200176E-1,-1.6871659E-3,-6.627807E-3,1.1592176E-1,-8.422107E-3,-8.673725E-3,1.5654649E-1,-6.25622E-3,3.755582E-1,-3.927015E-3,1E0,8.5249525E-1,8.6898553E-1,-1.3366075E-2,-9.520619E-3,8.1148636E-1,7.099305E-2,-1.2692771E-2,9.184248E-3,1.0994532E-2,1.0682389E-2,1.0375605E-2,9.959723E-3,9.6229E-3,9.289344E-3,9.021595E-3,1.7189401E-1,5.196723E-1,6.1457655E-3,5.9855497E-3,8.879759E-3,8.419812E-3,8.093009E-3,1.5883072E-1,3.0000347E-1,3.5404715E-1,5.9095947E-3,2.4510323E-1,4.72851E-3,2.9310945E-1,-1.841816E-3,-1.7110625E-3,-1.9305251E-3,-1.8376482E-3,4.18377E-1,1.7532329E-3,-6.3988566E-3,-6.242848E-3,2.1464752E-1,5.7291985E-1,-1.989595E-3,3.4531698E-1,-1.5537154E-2,-1.580077E-2,-1.5301542E-2,-1.4905153E-2,-1.3611471E-2,-1.4311899E-2,-1.03657665E-2,-1.0681674E-2,-1.2217488E-2,-1.1939784E-2,1.1852292E-2,1.130804E-2,7.2226827E-3,6.969313E-3,6.1885836E-3,6.6971676E-3,7.7157295E-3,7.015669E-3,3.762371E-3,2.1600497E-3,2.0627934E-3,1.9287169E-3,5.063987E-3,4.9120276E-3,3.7290873E-3,2.960701E-1,3.0888507E-1,4.8894882E-1,-7.2215386E-3,5.812226E-1,-3.9461674E-3,-4.105428E-3,-2.314125E-3,-1.5930113E-3,3.6268008E-3,3.4801203E-3,5.312971E-1,4.141336E-1,4.2183644E-1,-2.121822E-3,-4.2199013E-3,4.276088E-1,2.1534716E-4,2.6730408E-3,3.5902322E-4,2.8534723E-4,2.2620177E-4,7.6324024E-5,-4.3265894E-3,-4.9792393E-3],"split_indices":[3,3,3,3,3,2,1,3,2,2,1,5,2,0,3,3,3,3,3,5,3,3,5,1,3,5,5,5,2,5,3,3,3,3,5,3,3,5,3,0,3,5,5,1,1,0,0,0,0,0,0,0,0,5,0,3,5,5,0,0,3,1,0,3,0,0,0,0,0,0,0,3,0,0,0,0,0,0,5,3,3,0,3,0,3,0,0,0,0,3,0,0,0,1,3,0,1,0,0,0,0,0,0,0,0,0,0,0,0,0,0,0,0,0,0,0,0,0,0,0,0,0,3,5,3,0,3,0,0,0,0,0,0,2,3,3,0,0,5,0,0,0,0,0,0,0,0],"split_type":[0,0,0,0,0,0,0,0,0,0,0,0,0,0,0,0,0,0,0,0,0,0,0,0,0,0,0,0,0,0,0,0,0,0,0,0,0,0,0,0,0,0,0,0,0,0,0,0,0,0,0,0,0,0,0,0,0,0,0,0,0,0,0,0,0,0,0,0,0,0,0,0,0,0,0,0,0,0,0,0,0,0,0,0,0,0,0,0,0,0,0,0,0,0,0,0,0,0,0,0,0,0,0,0,0,0,0,0,0,0,0,0,0,0,0,0,0,0,0,0,0,0,0,0,0,0,0,0,0,0,0,0,0,0,0,0,0,0,0,0,0,0,0,0,0,0,0],"sum_hessian":[2.68199E5,1.65474E5,1.02725E5,1.19251E5,4.6223E4,2.8261E4,7.4464E4,7.8477E4,4.0774E4,2.8302E4,1.7921E4,1.7799E4,1.0462E4,5.5513E4,1.8951E4,5.1196E4,2.7281E4,1.7739E4,2.3035E4,9.422E3,1.888E4,8.399E3,9.522E3,8.802E3,8.997E3,9.481E3,9.81E2,3.7683E4,1.783E4,9.529E3,9.422E3,2.9292E4,2.1904E4,1.7897E4,9.384E3,9.375E3,8.364E3,1.2601E4,1.0434E4,3.01E2,9.121E3,9.394E3,9.486E3,4.123E3,4.276E3,9.446E3,7.6E1,1.387E3,7.415E3,3.778E3,5.219E3,9.106E3,3.75E2,7.71E2,2.1E2,1.8508E4,1.9175E4,9.338E3,8.492E3,3.33E2,9.196E3,8.35E3,1.072E3,1.5655E4,1.3637E4,9.388E3,1.2516E4,9.505E3,8.392E3,4.625E3,4.759E3,8.358E3,1.017E3,4.193E3,4.171E3,4.462E3,8.139E3,2.034E3,8.4E3,3.89E3,5.231E3,5.72E2,8.822E3,5.09E2,8.977E3,2.3E2,3.893E3,9.99E2,3.277E3,9.389E3,5.7E1,4.3E3,3.115E3,6.48E2,8.458E3,5.92E2,1.79E2,9.309E3,9.199E3,9.302E3,9.873E3,5.21E2,8.817E3,3.869E3,5.327E3,5.23E3,3.12E3,1.049E3,1.4606E4,1.03E3,7.328E3,2.49E2,7.68E2,8.236E3,1.64E2,4E0,3.886E3,4.107E3,1.124E3,3.595E3,5.227E3,3.751E3,5.226E3,4.175E3,5.214E3,5E0,6.43E2,3.149E3,5.309E3,1.66E2,1.3E1,4.152E3,1.074E3,3E1,4.145E3,5.209E3,5E0,2.43E2,4E2,2.1E1,9E0,3.084E3,1.061E3,4.286E3,9.23E2,2.4E2,1.6E2],"tree_param":{"num_deleted":"0","num_feature":"8","num_nodes":"147","size_leaf_vector":"1"}},{"base_weights":[3.167257E-6,-7.610792E-2,4.7221184E-2,-8.9929186E-2,-3.982063E-2,1.2016244E-2,6.0424287E-2,-9.572546E-2,-7.297863E-2,-4.815992E-2,-2.5691718E-2,-4.544126E-3,2.2820706E-2,4.683446E-2,6.660729E-2,-9.8898016E-2,-8.905303E-2,-7.841587E-2,-6.767019E-2,-4.1045852E-2,-5.5109255E-2,-2.6761623E-2,-1.571604E-2,-1.14981E-2,1.6409376E-3,1.3711914E-2,2.7646167E-2,4.1712917E-2,5.1884424E-2,6.1583646E-2,7.040332E-2,-9.7086035E-2,-1.0076563E-1,-9.183471E-2,-1.1568395E-2,-1.190117E-2,-7.826204E-2,-6.793008E-2,-5.932376E-2,-5.993922E-3,-4.0874153E-2,-7.48939E-3,-7.2494214E-3,-2.6217556E-2,-5.4152124E-3,-1.3332514E-2,-3.392586E-3,-1.1835023E-2,-1.4714451E-3,1.7412357E-3,-1.4031822E-3,2.9694997E-3,1.3428809E-2,3.178829E-2,2.3689402E-2,3.871562E-2,4.4707358E-2,4.9750954E-2,5.4028884E-2,5.902766E-2,6.413346E-2,7.199657E-2,6.811886E-2,-1.324249E-2,-9.585091E-2,-1.3446319E-2,-1.3674496E-2,-1.2389184E-2,-1.1734351E-2,-1.0646515E-2,-1.0391964E-2,-1.0744215E-2,-6.783386E-2,-9.61771E-3,-7.7008195E-3,-5.557105E-3,-5.402195E-3,-2.775093E-2,-2.5857044E-2,-1.640808E-2,-1.751476E-3,-1.6482646E-3,-1.1722031E-2,1.501947E-3,1.7026917E-3,1.2668851E-2,1.3649713E-2,4.120691E-3,4.3097576E-3,2.3497159E-2,4.323975E-3,3.8938794E-2,4.5553874E-3,4.2327385E-2,6.060422E-3,6.4242333E-3,5.0002202E-2,5.3784E-2,7.520568E-3,7.765018E-3,6.0518686E-2,8.49246E-3,8.786983E-3,9.504147E-3,7.276665E-2,9.0511665E-3,9.300146E-3,-1.29381465E-2,-1.2282707E-2,-6.930438E-3,-6.7886814E-2,-3.6676906E-3,-2.9640282E-2,-3.5293258E-3,-3.4151713E-3,-1.3271081E-3,-1.741063E-2,-1.5872314E-3,-1.5134222E-3,1.3564681E-3,2.4001834E-3,1.6655541E-3,1.7466078E-3,1.8029773E-3,1.402576E-2,2.3150163E-2,2.3981407E-2,5.1816907E-3,5.3056083E-3,5.8096936E-3,5.3868485E-3,6.70665E-3,6.974729E-3,7.1509653E-3,7.3217694E-3,8.019574E-3,8.228951E-3,7.257931E-2,1.0195678E-2,-9.374204E-3,-6.73743E-2,-3.1656954E-2,-3.6418433E-3,-2.4700365E-3,-1.6087366E-3,3.7268177E-4,1.534675E-3,2.3120325E-3,1.4069713E-2,1.3977354E-2,2.4224242E-2,3.0256456E-3,3.138051E-3,3.2234492E-3,3.1883456E-2,9.691664E-3,9.843086E-3,-1.0843413E-2,-9.056191E-3,-4.999659E-3,-3.8721939E-3,-1.6712488E-3,5.5506014E-5,2.0338284E-4,5.2641553E-4,5.2197115E-4,3.0749931E-4,2.2148679E-3,1.4144215E-3,1.8704785E-3,2.0899756E-3,1.5225608E-3,3.6701965E-3,2.7634162E-3,5.5713444E-3],"categories":[],"categories_nodes":[],"categories_segments":[],"categories_sizes":[],"default_left":[0,0,0,0,0,0,0,0,0,0,0,0,0,0,0,0,0,0,0,0,0,0,0,0,0,0,0,0,0,0,0,0,0,0,0,0,0,0,0,0,0,0,0,0,0,0,0,0,0,0,0,0,0,0,0,0,0,0,0,0,0,0,0,0,0,0,0,0,0,0,0,0,0,0,0,0,0,0,0,0,0,0,0,0,0,0,0,0,0,0,0,0,0,0,0,0,0,0,0,0,0,0,0,0,0,0,0,0,0,0,0,0,0,0,0,0,0,0,0,0,0,0,0,0,0,0,0,0,0,0,0,0,0,0,0,0,0,0,0,0,0,0,0,0,0,0,0,0,0,0,0,0,0,0,0,0,0,0,0,0,0,0,0,0,0,0,0,0,0,0,0,0,0,0,0],"id":12,"left_children":[1,3,5,7,9,11,13,15,17,19,21,23,25,27,29,31,33,35,37,39,41,43,45,47,49,51,53,55,57,59,61,63,65,67,-1,-1,69,71,73,-1,75,-1,-1,77,-1,79,-1,81,-1,83,-1,-1,85,87,89,91,93,95,97,99,101,103,105,-1,107,-1,-1,-1,-1,-1,-1,-1,109,-1,-1,-1,-1,111,113,115,-1,-1,117,-1,119,121,123,-1,-1,125,-1,127,-1,129,-1,-1,131,133,-1,-1,135,-1,-1,-1,137,-1,-1,-1,-1,-1,139,-1,141,-1,-1,-1,143,-1,-1,145,147,-1,-1,-1,149,151,153,-1,-1,-1,-1,-1,-1,-1,-1,-1,-1,155,-1,-1,157,159,-1,-1,-1,161,163,165,167,169,171,-1,-1,-1,173,-1,-1,-1,-1,-1,-1,-1,-1,-1,-1,-1,-1,-1,-1,-1,-1,-1,-1,-1,-1],"loss_changes":[9.6486017E2,5.1549377E1,7.701346E1,7.3064575E0,3.3395767E0,8.0861225E0,1.0121735E1,1.1653137E0,5.4228973E-1,8.7916946E-1,1.11923695E-1,7.67503E-1,1.2017231E0,9.7245026E-1,1.5749207E0,1.1743164E-1,1.461029E-1,7.507324E-3,1.681137E-2,3.4627914E-3,3.0536652E-3,6.863117E-2,2.2786349E-2,